~o
<STREAMINFO> 1 39
<VECSIZE> 39<NULLD><MFCC_E_D_A_Z><DIAGC>
~s "silst"
<NUMMIXES> 23
<MIXTURE> 1 4.512779e-02
<MEAN> 39
 -2.383824e+00 -8.720461e-02 2.406396e+00 9.079779e-01 8.971229e-01 2.957247e+00 8.895465e-01 1.730552e+00 2.264710e+00 1.360116e+00 1.120209e+00 6.514413e-01 4.192110e-02 -8.883976e-01 -9.104446e-02 -1.374776e-01 8.866207e-01 3.219773e-01 5.135721e-01 1.361039e-02 1.015398e-01 -1.639595e-01 1.616549e-02 1.378208e-01 5.312577e-02 2.156500e-02 -8.200513e-02 2.169526e-01 -3.417432e-02 3.451529e-01 1.866614e-01 1.639316e-01 -2.768760e-02 1.346976e-01 1.168086e-01 1.629414e-02 7.585197e-02 1.226105e-01 2.911198e-02
<VARIANCE> 39
 1.446014e+01 2.872665e+01 1.601102e+01 1.749149e+01 1.677190e+01 2.023069e+01 2.275063e+01 2.709522e+01 1.982649e+01 2.082325e+01 1.958448e+01 1.454295e+01 1.660334e-02 2.439932e+00 3.113900e+00 1.971444e+00 2.111570e+00 2.624839e+00 2.453966e+00 2.461401e+00 2.858277e+00 3.462527e+00 2.530128e+00 1.856239e+00 1.955871e+00 3.654555e-03 3.330747e-01 5.351244e-01 2.660514e-01 3.137761e-01 3.218765e-01 4.034563e-01 4.216860e-01 3.598328e-01 4.012838e-01 3.332158e-01 3.003884e-01 2.688277e-01 6.755494e-04
<GCONST> 8.832158e+01
<MIXTURE> 2 4.638948e-02
<MEAN> 39
 -3.216820e+00 -2.997457e+00 2.123816e+00 2.773552e+00 5.223305e+00 7.257889e+00 5.016684e+00 6.390326e+00 6.653834e+00 6.331957e+00 4.312238e+00 1.998457e+00 7.299110e-02 -1.079783e+00 -6.099588e-01 -3.166260e-01 4.808976e-01 6.477941e-01 7.290905e-01 1.069033e+00 1.226120e+00 8.763848e-01 6.989290e-01 2.487702e-01 1.124007e-01 -7.149635e-02 6.216545e-01 6.411272e-01 3.086932e-01 1.076953e-01 -3.179819e-01 -5.778301e-01 -6.083437e-01 -7.392874e-01 -7.833851e-01 -8.045464e-01 -3.712622e-01 -1.857710e-01 4.454654e-02
<VARIANCE> 39
 1.255957e+01 4.234319e+01 2.005201e+01 3.022935e+01 2.526531e+01 3.475634e+01 2.901031e+01 3.251709e+01 3.041309e+01 2.412135e+01 3.028225e+01 2.546411e+01 1.926505e-02 1.148372e+00 1.941185e+00 1.607894e+00 2.071434e+00 2.224087e+00 2.408321e+00 3.185287e+00 3.289865e+00 3.018182e+00 3.483938e+00 2.351463e+00 2.568678e+00 2.460115e-03 1.776058e-01 2.561565e-01 2.707496e-01 3.329604e-01 3.286779e-01 3.860870e-01 4.268717e-01 4.493117e-01 4.551036e-01 5.353600e-01 4.746679e-01 5.003709e-01 4.201446e-04
<GCONST> 9.162371e+01
<MIXTURE> 3 9.493671e-02
<MEAN> 39
 1.646947e+00 4.503533e+00 7.503698e+00 4.760353e+00 1.323671e+00 -4.795963e-01 -4.735645e+00 -3.663264e+00 -3.904416e+00 -1.078492e+00 4.795961e-01 6.613202e-01 5.401225e-01 -3.218200e+00 -1.717878e+00 -4.289714e-01 1.885207e+00 1.702363e+00 2.842737e+00 2.675695e+00 2.627740e+00 1.792698e+00 2.111279e+00 1.130405e+00 6.404897e-01 -1.436255e-01 -4.441674e-01 -3.064818e-01 -7.991136e-01 -5.192996e-01 -1.425399e-01 2.673878e-01 7.214721e-01 8.708676e-01 7.656152e-01 2.689878e-01 1.074598e-01 -1.443785e-01 -1.686440e-03
<VARIANCE> 39
 1.826874e+01 3.741129e+01 2.117375e+01 2.697696e+01 2.126189e+01 3.338036e+01 2.839075e+01 3.152421e+01 2.978325e+01 3.356561e+01 3.461003e+01 3.700542e+01 1.719946e-02 1.450059e+00 1.703641e+00 2.569206e+00 2.667202e+00 2.541003e+00 3.034843e+00 3.161941e+00 3.853897e+00 3.201847e+00 3.542924e+00 2.942564e+00 3.149807e+00 9.221936e-04 3.743535e-01 4.191783e-01 4.273308e-01 4.579616e-01 4.921975e-01 6.128293e-01 5.581961e-01 6.066986e-01 6.501605e-01 6.235969e-01 5.536457e-01 5.589321e-01 2.944213e-04
<GCONST> 9.698138e+01
<MIXTURE> 4 3.797323e-02
<MEAN> 39
 -3.287108e+00 9.248472e-01 4.906771e+00 5.429257e+00 3.683852e+00 4.810153e+00 1.723120e+00 3.666677e+00 1.564766e+00 3.228984e+00 2.479018e+00 1.143128e+00 2.921440e-01 -2.966265e+00 -1.724212e+00 -8.215030e-01 1.260337e+00 1.544865e+00 2.636086e+00 2.930627e+00 3.298844e+00 2.265928e+00 2.007491e+00 7.982129e-01 2.601672e-01 -1.261552e-01 3.626983e-01 3.163449e-01 -3.280734e-01 -4.530102e-01 -3.939577e-01 -4.209160e-01 -1.509213e-01 -1.123508e-01 -5.999633e-02 -3.184161e-01 -1.929787e-01 -2.173585e-01 3.069581e-02
<VARIANCE> 39
 1.950764e+01 3.621800e+01 1.530557e+01 2.654541e+01 2.075802e+01 2.708968e+01 2.692270e+01 2.800127e+01 3.328500e+01 2.734207e+01 3.426910e+01 2.867179e+01 2.207699e-02 1.706807e+00 1.923788e+00 2.362562e+00 2.059136e+00 2.707148e+00 2.941306e+00 2.777815e+00 2.655646e+00 3.019154e+00 3.472179e+00 3.790220e+00 4.213004e+00 1.686816e-03 2.904319e-01 3.782258e-01 3.000804e-01 4.674218e-01 4.094850e-01 4.903381e-01 4.771460e-01 5.392265e-01 5.899873e-01 5.486732e-01 5.175112e-01 4.749179e-01 3.168684e-04
<GCONST> 9.494772e+01
<MIXTURE> 5 4.162601e-02
<MEAN> 39
 -3.376053e+00 -2.479142e+00 3.399569e+00 5.749846e+00 5.237146e+00 4.945188e+00 4.007419e+00 3.927806e+00 3.787278e+00 3.865965e+00 3.823934e+00 2.294875e+00 1.270353e-01 1.745769e+00 2.085541e+00 -2.965135e-01 -1.061911e+00 -1.439461e+00 -1.400916e+00 -1.297918e+00 -8.723432e-01 -5.969964e-01 -1.061267e-01 -1.880887e-01 1.494751e-02 1.212224e-01 7.113431e-01 3.783832e-01 -3.621008e-01 -6.843430e-01 -6.005953e-01 -5.144312e-01 -4.293453e-01 -3.585983e-01 -4.619060e-01 -2.380471e-01 -3.492997e-01 -6.182121e-02 4.497245e-02
<VARIANCE> 39
 1.969907e+01 5.581440e+01 4.044573e+01 2.834914e+01 3.790228e+01 4.954800e+01 3.784883e+01 4.138980e+01 4.543324e+01 2.979176e+01 3.603509e+01 2.594105e+01 3.764189e-02 2.262331e+00 3.394313e+00 4.420249e+00 3.583080e+00 3.498386e+00 4.180620e+00 4.874867e+00 4.168064e+00 3.974045e+00 3.712640e+00 3.995384e+00 3.388713e+00 4.711823e-03 3.988300e-01 7.462143e-01 6.584049e-01 5.597352e-01 6.550615e-01 8.623247e-01 7.960855e-01 7.282383e-01 8.326443e-01 6.872923e-01 7.908043e-01 6.346076e-01 7.357288e-04
<GCONST> 1.100360e+02
<MIXTURE> 6 1.659356e-02
<MEAN> 39
 -3.278468e+00 7.380242e-01 6.141652e+00 6.397127e+00 5.852083e+00 6.623721e+00 5.254277e+00 7.134389e+00 4.742476e+00 4.062644e+00 3.163265e+00 9.793313e-01 -7.570753e-02 -2.084859e-02 2.744584e-01 1.772316e-01 4.227689e-02 2.155132e-02 8.800187e-03 -5.263914e-02 5.746148e-02 -9.230185e-02 -8.793476e-02 -2.838957e-02 -1.032066e-01 -4.295733e-03 1.379826e-01 -8.592211e-02 -1.726934e-01 -1.513020e-01 -1.422887e-01 -1.068661e-01 -1.696776e-01 -3.081432e-01 -1.983051e-01 2.677980e-02 6.774159e-02 1.394881e-01 1.914214e-02
<VARIANCE> 39
 9.701608e+00 3.349977e+01 1.966316e+01 2.214658e+01 2.778569e+01 2.187311e+01 1.967171e+01 2.300206e+01 2.087166e+01 1.327301e+01 1.550566e+01 1.246003e+01 5.240907e-03 4.555816e-01 1.246253e+00 1.102906e+00 1.162887e+00 1.245227e+00 1.680499e+00 1.513005e+00 1.861516e+00 1.771930e+00 1.728174e+00 1.497255e+00 1.453070e+00 2.698600e-04 1.970043e-01 3.455226e-01 2.247254e-01 3.081896e-01 3.664819e-01 4.109381e-01 4.025773e-01 3.722748e-01 4.852177e-01 3.666549e-01 2.697059e-01 2.611268e-01 4.115808e-04
<GCONST> 7.551073e+01
<MIXTURE> 7 3.797323e-02
<MEAN> 39
 -3.287108e+00 9.248472e-01 4.906771e+00 5.429257e+00 3.683852e+00 4.810153e+00 1.723120e+00 3.666677e+00 1.564766e+00 3.228984e+00 2.479018e+00 1.143128e+00 2.921440e-01 -2.966265e+00 -1.724212e+00 -8.215030e-01 1.260337e+00 1.544865e+00 2.636086e+00 2.930627e+00 3.298844e+00 2.265928e+00 2.007491e+00 7.982129e-01 2.601672e-01 -1.261552e-01 3.626983e-01 3.163449e-01 -3.280734e-01 -4.530102e-01 -3.939577e-01 -4.209160e-01 -1.509213e-01 -1.123508e-01 -5.999633e-02 -3.184161e-01 -1.929787e-01 -2.173585e-01 3.069581e-02
<VARIANCE> 39
 1.950764e+01 3.621800e+01 1.530557e+01 2.654541e+01 2.075802e+01 2.708968e+01 2.692270e+01 2.800127e+01 3.328500e+01 2.734207e+01 3.426910e+01 2.867179e+01 2.207699e-02 1.706807e+00 1.923788e+00 2.362562e+00 2.059136e+00 2.707148e+00 2.941306e+00 2.777815e+00 2.655646e+00 3.019154e+00 3.472179e+00 3.790220e+00 4.213004e+00 1.686816e-03 2.904319e-01 3.782258e-01 3.000804e-01 4.674218e-01 4.094850e-01 4.903381e-01 4.771460e-01 5.392265e-01 5.899873e-01 5.486732e-01 5.175112e-01 4.749179e-01 3.168684e-04
<GCONST> 9.494772e+01
<MIXTURE> 8 6.305517e-02
<MEAN> 39
 -2.563668e+00 -4.720549e+00 4.981022e+00 7.171754e+00 8.596674e+00 8.634955e+00 5.416006e+00 4.269753e+00 3.241515e+00 2.172446e+00 1.233597e+00 1.399350e+00 1.891829e-01 -7.911580e-01 3.539316e-02 2.218354e-01 2.884444e-01 1.023500e-01 2.609938e-01 6.751594e-02 2.798381e-01 3.761848e-01 1.267952e-01 2.060178e-01 -1.007723e-01 -2.523488e-02 3.902605e-01 3.878912e-01 -3.106808e-01 -4.485457e-01 -6.905766e-01 -6.466593e-01 -4.331081e-01 -2.482937e-01 -1.157773e-01 2.496766e-02 6.460520e-02 6.305208e-03 2.160690e-02
<VARIANCE> 39
 2.211986e+01 4.510179e+01 5.936506e+01 3.311818e+01 3.355593e+01 5.156786e+01 4.813925e+01 6.122734e+01 5.277083e+01 4.163797e+01 4.516812e+01 3.290203e+01 3.544451e-02 1.689116e+00 2.269224e+00 2.790922e+00 2.541624e+00 3.384671e+00 3.495980e+00 3.461893e+00 3.945767e+00 3.839041e+00 3.245932e+00 3.323697e+00 2.513605e+00 3.974759e-03 5.135055e-01 6.234487e-01 6.592762e-01 5.097804e-01 6.786188e-01 6.961886e-01 8.025996e-01 9.348025e-01 8.638042e-01 6.823152e-01 7.953758e-01 5.483956e-01 1.134407e-03
<GCONST> 1.093695e+02
<MIXTURE> 9 1.133800e-02
<MEAN> 39
 -3.669861e-02 6.094539e-01 1.609330e+00 -1.077311e+00 -2.964327e+00 -1.972561e+00 -1.715730e+00 5.132571e-01 4.305170e+00 7.168181e+00 9.626829e+00 7.935170e+00 3.946787e-01 -1.268516e+00 -4.432441e-01 -2.448840e-01 3.998052e-01 2.675396e-01 6.764482e-01 7.397103e-01 8.652712e-01 3.796340e-01 3.747057e-01 2.167113e-02 -2.484207e-01 -5.295447e-02 -1.347957e-01 1.018293e-01 1.368147e-01 4.344621e-01 6.004409e-01 5.553898e-01 3.006881e-01 1.817728e-01 -1.934732e-01 -5.206120e-01 -9.539065e-01 -8.317677e-01 3.098054e-03
<VARIANCE> 39
 2.949296e+01 4.450235e+01 4.454468e+01 4.290343e+01 3.932868e+01 5.643916e+01 7.476439e+01 5.230646e+01 5.199040e+01 5.082553e+01 5.529916e+01 4.347894e+01 3.965114e-02 2.889969e+00 2.863977e+00 3.263929e+00 4.086921e+00 4.658383e+00 5.176690e+00 5.898252e+00 3.644711e+00 4.474861e+00 4.624990e+00 6.062767e+00 5.941931e+00 5.201101e-03 3.568324e-01 6.609536e-01 5.650867e-01 7.229937e-01 6.075585e-01 6.936873e-01 1.274158e+00 7.974077e-01 9.250545e-01 8.683941e-01 8.550453e-01 8.240392e-01 6.987969e-04
<GCONST> 1.161128e+02
<MIXTURE> 10 3.217447e-02
<MEAN> 39
 8.002253e-01 5.051719e+00 7.484234e+00 7.814736e+00 2.596014e+00 5.152964e+00 1.288511e+00 1.462815e+00 1.878231e+00 3.264822e-01 -5.300751e-01 -4.406754e-01 6.015065e-01 -3.122845e+00 -1.289999e+00 -1.022493e+00 1.353901e+00 1.372396e+00 1.572786e+00 7.010637e-01 1.573916e+00 3.695645e-01 1.107282e-01 1.333997e+00 5.893164e-01 -1.218686e-01 -4.677362e-01 -8.725286e-01 -1.017873e+00 -9.881569e-01 -5.217560e-01 -6.033317e-01 -2.444074e-02 -1.295662e-02 7.150932e-02 1.778683e-01 1.139185e-01 2.495198e-01 -1.095336e-02
<VARIANCE> 39
 2.352082e+01 3.094125e+01 1.608395e+01 1.862389e+01 2.648545e+01 2.667444e+01 3.080139e+01 3.550361e+01 2.913387e+01 2.783456e+01 2.261351e+01 2.124873e+01 1.038676e-02 1.764481e+00 2.150589e+00 2.485191e+00 2.888379e+00 2.530475e+00 2.968464e+00 3.674856e+00 3.063281e+00 3.331931e+00 3.945841e+00 3.513377e+00 2.592912e+00 1.003283e-03 3.149422e-01 2.735491e-01 2.683999e-01 3.024683e-01 3.998122e-01 4.561855e-01 4.588761e-01 4.912464e-01 6.046143e-01 5.615886e-01 4.228441e-01 4.544425e-01 1.841518e-04
<GCONST> 9.197249e+01
<MIXTURE> 11 1.659356e-02
<MEAN> 39
 -3.278468e+00 7.380242e-01 6.141652e+00 6.397127e+00 5.852083e+00 6.623721e+00 5.254277e+00 7.134389e+00 4.742476e+00 4.062644e+00 3.163265e+00 9.793313e-01 -7.570753e-02 -2.084859e-02 2.744584e-01 1.772316e-01 4.227689e-02 2.155132e-02 8.800187e-03 -5.263914e-02 5.746148e-02 -9.230185e-02 -8.793476e-02 -2.838957e-02 -1.032066e-01 -4.295733e-03 1.379826e-01 -8.592211e-02 -1.726934e-01 -1.513020e-01 -1.422887e-01 -1.068661e-01 -1.696776e-01 -3.081432e-01 -1.983051e-01 2.677980e-02 6.774159e-02 1.394881e-01 1.914214e-02
<VARIANCE> 39
 9.701608e+00 3.349977e+01 1.966316e+01 2.214658e+01 2.778569e+01 2.187311e+01 1.967171e+01 2.300206e+01 2.087166e+01 1.327301e+01 1.550566e+01 1.246003e+01 5.240907e-03 4.555816e-01 1.246253e+00 1.102906e+00 1.162887e+00 1.245227e+00 1.680499e+00 1.513005e+00 1.861516e+00 1.771930e+00 1.728174e+00 1.497255e+00 1.453070e+00 2.698600e-04 1.970043e-01 3.455226e-01 2.247254e-01 3.081896e-01 3.664819e-01 4.109381e-01 4.025773e-01 3.722748e-01 4.852177e-01 3.666549e-01 2.697059e-01 2.611268e-01 4.115808e-04
<GCONST> 7.551073e+01
<MIXTURE> 12 5.875045e-02
<MEAN> 39
 -1.830042e+00 -2.951633e+00 -7.199699e-01 1.177434e+00 2.846762e+00 2.361392e+00 1.164318e+00 1.349778e+00 2.047208e+00 -6.005401e-01 8.800631e-01 1.923420e-01 4.859552e-02 -2.090661e-01 1.394902e-01 2.405543e-01 2.041965e-01 -2.673202e-02 1.091293e-01 3.258395e-02 -6.258090e-02 3.598724e-02 -1.327050e-01 -2.174159e-01 -2.615462e-01 -3.072211e-02 3.006306e-01 2.693653e-01 2.678482e-01 1.811264e-01 8.217317e-02 6.116806e-02 1.747469e-02 4.663781e-02 1.060571e-01 1.219712e-01 -2.161852e-02 5.095243e-02 2.624021e-02
<VARIANCE> 39
 7.745403e+00 5.279453e+01 2.101741e+01 2.933223e+01 2.657973e+01 2.894580e+01 2.788867e+01 3.991720e+01 3.302687e+01 3.513802e+01 3.117643e+01 1.949697e+01 1.935166e-02 2.461977e-01 5.045826e-01 7.101419e-01 1.203673e+00 1.642122e+00 2.078154e+00 1.706836e+00 2.089728e+00 1.743951e+00 2.210809e+00 2.047313e+00 1.580404e+00 8.118671e-04 8.011866e-02 1.879000e-01 2.076184e-01 2.295902e-01 3.318841e-01 4.342726e-01 3.607921e-01 4.986940e-01 4.666617e-01 5.011030e-01 4.184291e-01 3.217588e-01 3.205184e-04
<GCONST> 8.056530e+01
<MIXTURE> 13 1.291988e-01
<MEAN> 39
 5.620273e+00 6.209440e+00 7.202616e+00 1.236418e+00 -1.933877e+00 -7.309356e-01 -3.720853e+00 -3.427012e+00 -1.514239e+00 -2.535747e+00 -2.165678e+00 -1.183259e+00 6.995713e-01 -1.682411e+00 -1.510237e-02 7.363210e-01 2.817191e+00 2.025398e+00 1.759060e+00 8.047427e-01 9.461203e-01 -4.813054e-01 4.234768e-01 6.675055e-01 4.837893e-01 -9.928457e-02 -1.030028e+00 -9.794965e-01 -9.195033e-01 -1.738822e-01 6.614096e-02 3.567576e-01 8.279815e-01 8.313612e-01 5.452204e-01 5.226834e-01 3.774802e-01 1.376975e-01 -2.392334e-02
<VARIANCE> 39
 1.353323e+01 2.733676e+01 1.911805e+01 2.606038e+01 2.666658e+01 3.277191e+01 4.045499e+01 3.409305e+01 4.626317e+01 4.088540e+01 2.960063e+01 3.937450e+01 1.201277e-02 2.272174e+00 2.091039e+00 2.454698e+00 2.914243e+00 2.919271e+00 3.295240e+00 3.641422e+00 4.476559e+00 4.479671e+00 4.903884e+00 3.669003e+00 3.271022e+00 8.636491e-04 2.316631e-01 2.451145e-01 4.135914e-01 5.536691e-01 5.154518e-01 6.432491e-01 6.598040e-01 6.469843e-01 9.008671e-01 5.732101e-01 5.189356e-01 6.277536e-01 1.463427e-04
<GCONST> 9.817967e+01
<MIXTURE> 14 1.133800e-02
<MEAN> 39
 -3.669861e-02 6.094539e-01 1.609330e+00 -1.077311e+00 -2.964327e+00 -1.972561e+00 -1.715730e+00 5.132571e-01 4.305170e+00 7.168181e+00 9.626829e+00 7.935170e+00 3.946787e-01 -1.268516e+00 -4.432441e-01 -2.448840e-01 3.998052e-01 2.675396e-01 6.764482e-01 7.397103e-01 8.652712e-01 3.796340e-01 3.747057e-01 2.167113e-02 -2.484207e-01 -5.295447e-02 -1.347957e-01 1.018293e-01 1.368147e-01 4.344621e-01 6.004409e-01 5.553898e-01 3.006881e-01 1.817728e-01 -1.934732e-01 -5.206120e-01 -9.539065e-01 -8.317677e-01 3.098054e-03
<VARIANCE> 39
 2.949296e+01 4.450235e+01 4.454468e+01 4.290343e+01 3.932868e+01 5.643916e+01 7.476439e+01 5.230646e+01 5.199040e+01 5.082553e+01 5.529916e+01 4.347894e+01 3.965114e-02 2.889969e+00 2.863977e+00 3.263929e+00 4.086921e+00 4.658383e+00 5.176690e+00 5.898252e+00 3.644711e+00 4.474861e+00 4.624990e+00 6.062767e+00 5.941931e+00 5.201101e-03 3.568324e-01 6.609536e-01 5.650867e-01 7.229937e-01 6.075585e-01 6.936873e-01 1.274158e+00 7.974077e-01 9.250545e-01 8.683941e-01 8.550453e-01 8.240392e-01 6.987969e-04
<GCONST> 1.161128e+02
<MIXTURE> 15 1.133800e-02
<MEAN> 39
 -3.669861e-02 6.094539e-01 1.609330e+00 -1.077311e+00 -2.964327e+00 -1.972561e+00 -1.715730e+00 5.132571e-01 4.305170e+00 7.168181e+00 9.626829e+00 7.935170e+00 3.946787e-01 -1.268516e+00 -4.432441e-01 -2.448840e-01 3.998052e-01 2.675396e-01 6.764482e-01 7.397103e-01 8.652712e-01 3.796340e-01 3.747057e-01 2.167113e-02 -2.484207e-01 -5.295447e-02 -1.347957e-01 1.018293e-01 1.368147e-01 4.344621e-01 6.004409e-01 5.553898e-01 3.006881e-01 1.817728e-01 -1.934732e-01 -5.206120e-01 -9.539065e-01 -8.317677e-01 3.098054e-03
<VARIANCE> 39
 2.949296e+01 4.450235e+01 4.454468e+01 4.290343e+01 3.932868e+01 5.643916e+01 7.476439e+01 5.230646e+01 5.199040e+01 5.082553e+01 5.529916e+01 4.347894e+01 3.965114e-02 2.889969e+00 2.863977e+00 3.263929e+00 4.086921e+00 4.658383e+00 5.176690e+00 5.898252e+00 3.644711e+00 4.474861e+00 4.624990e+00 6.062767e+00 5.941931e+00 5.201101e-03 3.568324e-01 6.609536e-01 5.650867e-01 7.229937e-01 6.075585e-01 6.936873e-01 1.274158e+00 7.974077e-01 9.250545e-01 8.683941e-01 8.550453e-01 8.240392e-01 6.987969e-04
<GCONST> 1.161128e+02
<MIXTURE> 16 3.217447e-02
<MEAN> 39
 8.002253e-01 5.051719e+00 7.484234e+00 7.814736e+00 2.596014e+00 5.152964e+00 1.288511e+00 1.462815e+00 1.878231e+00 3.264822e-01 -5.300751e-01 -4.406754e-01 6.015065e-01 -3.122845e+00 -1.289999e+00 -1.022493e+00 1.353901e+00 1.372396e+00 1.572786e+00 7.010637e-01 1.573916e+00 3.695645e-01 1.107282e-01 1.333997e+00 5.893164e-01 -1.218686e-01 -4.677362e-01 -8.725286e-01 -1.017873e+00 -9.881569e-01 -5.217560e-01 -6.033317e-01 -2.444074e-02 -1.295662e-02 7.150932e-02 1.778683e-01 1.139185e-01 2.495198e-01 -1.095336e-02
<VARIANCE> 39
 2.352082e+01 3.094125e+01 1.608395e+01 1.862389e+01 2.648545e+01 2.667444e+01 3.080139e+01 3.550361e+01 2.913387e+01 2.783456e+01 2.261351e+01 2.124873e+01 1.038676e-02 1.764481e+00 2.150589e+00 2.485191e+00 2.888379e+00 2.530475e+00 2.968464e+00 3.674856e+00 3.063281e+00 3.331931e+00 3.945841e+00 3.513377e+00 2.592912e+00 1.003283e-03 3.149422e-01 2.735491e-01 2.683999e-01 3.024683e-01 3.998122e-01 4.561855e-01 4.588761e-01 4.912464e-01 6.046143e-01 5.615886e-01 4.228441e-01 4.544425e-01 1.841518e-04
<GCONST> 9.197249e+01
<MIXTURE> 17 1.133800e-02
<MEAN> 39
 -3.669861e-02 6.094539e-01 1.609330e+00 -1.077311e+00 -2.964327e+00 -1.972561e+00 -1.715730e+00 5.132571e-01 4.305170e+00 7.168181e+00 9.626829e+00 7.935170e+00 3.946787e-01 -1.268516e+00 -4.432441e-01 -2.448840e-01 3.998052e-01 2.675396e-01 6.764482e-01 7.397103e-01 8.652712e-01 3.796340e-01 3.747057e-01 2.167113e-02 -2.484207e-01 -5.295447e-02 -1.347957e-01 1.018293e-01 1.368147e-01 4.344621e-01 6.004409e-01 5.553898e-01 3.006881e-01 1.817728e-01 -1.934732e-01 -5.206120e-01 -9.539065e-01 -8.317677e-01 3.098054e-03
<VARIANCE> 39
 2.949296e+01 4.450235e+01 4.454468e+01 4.290343e+01 3.932868e+01 5.643916e+01 7.476439e+01 5.230646e+01 5.199040e+01 5.082553e+01 5.529916e+01 4.347894e+01 3.965114e-02 2.889969e+00 2.863977e+00 3.263929e+00 4.086921e+00 4.658383e+00 5.176690e+00 5.898252e+00 3.644711e+00 4.474861e+00 4.624990e+00 6.062767e+00 5.941931e+00 5.201101e-03 3.568324e-01 6.609536e-01 5.650867e-01 7.229937e-01 6.075585e-01 6.936873e-01 1.274158e+00 7.974077e-01 9.250545e-01 8.683941e-01 8.550453e-01 8.240392e-01 6.987969e-04
<GCONST> 1.161128e+02
<MIXTURE> 18 3.217447e-02
<MEAN> 39
 8.002253e-01 5.051719e+00 7.484234e+00 7.814736e+00 2.596014e+00 5.152964e+00 1.288511e+00 1.462815e+00 1.878231e+00 3.264822e-01 -5.300751e-01 -4.406754e-01 6.015065e-01 -3.122845e+00 -1.289999e+00 -1.022493e+00 1.353901e+00 1.372396e+00 1.572786e+00 7.010637e-01 1.573916e+00 3.695645e-01 1.107282e-01 1.333997e+00 5.893164e-01 -1.218686e-01 -4.677362e-01 -8.725286e-01 -1.017873e+00 -9.881569e-01 -5.217560e-01 -6.033317e-01 -2.444074e-02 -1.295662e-02 7.150932e-02 1.778683e-01 1.139185e-01 2.495198e-01 -1.095336e-02
<VARIANCE> 39
 2.352082e+01 3.094125e+01 1.608395e+01 1.862389e+01 2.648545e+01 2.667444e+01 3.080139e+01 3.550361e+01 2.913387e+01 2.783456e+01 2.261351e+01 2.124873e+01 1.038676e-02 1.764481e+00 2.150589e+00 2.485191e+00 2.888379e+00 2.530475e+00 2.968464e+00 3.674856e+00 3.063281e+00 3.331931e+00 3.945841e+00 3.513377e+00 2.592912e+00 1.003283e-03 3.149422e-01 2.735491e-01 2.683999e-01 3.024683e-01 3.998122e-01 4.561855e-01 4.588761e-01 4.912464e-01 6.046143e-01 5.615886e-01 4.228441e-01 4.544425e-01 1.841518e-04
<GCONST> 9.197249e+01
<MIXTURE> 19 7.961581e-02
<MEAN> 39
 8.186615e-01 -9.446095e-01 5.012540e+00 6.853548e+00 4.495760e+00 5.253234e+00 3.715312e+00 4.534107e-01 -7.399191e-01 7.910085e-02 -1.675462e-01 5.322828e-01 4.358584e-01 -3.058765e+00 -2.304473e+00 -2.451352e+00 -3.007916e-01 -4.170426e-02 6.606576e-01 8.002883e-01 1.519445e+00 9.928166e-01 9.260815e-01 1.423935e+00 6.564679e-01 -1.328484e-01 -3.409059e-01 9.620368e-02 -6.172436e-01 -7.614745e-01 -6.495762e-01 -4.861329e-01 -3.322796e-01 2.428271e-02 4.499869e-01 2.167413e-01 5.708713e-02 1.765284e-02 1.301712e-02
<VARIANCE> 39
 1.693218e+01 4.508334e+01 2.691730e+01 2.772316e+01 3.071125e+01 3.212626e+01 4.109071e+01 4.391170e+01 3.523005e+01 3.729968e+01 3.329069e+01 2.788097e+01 1.362181e-02 1.560852e+00 1.922225e+00 1.989953e+00 2.361761e+00 2.179949e+00 2.235607e+00 2.412749e+00 2.831356e+00 3.217165e+00 3.134078e+00 2.428384e+00 2.583297e+00 1.001472e-03 3.515168e-01 4.026249e-01 3.858815e-01 4.311979e-01 4.188239e-01 5.231287e-01 6.354830e-01 6.729177e-01 6.166425e-01 6.218635e-01 6.003956e-01 5.141528e-01 2.632629e-04
<GCONST> 9.594002e+01
<MIXTURE> 20 7.462342e-02
<MEAN> 39
 -1.595554e+00 -2.217971e+00 1.829946e-02 1.231643e+00 2.428619e+00 1.824300e+00 1.952417e+00 2.702168e+00 3.392049e+00 1.181220e+00 1.308395e+00 1.047834e+00 1.868891e-01 -1.703566e+00 -1.668071e+00 -1.260876e+00 -8.025547e-01 -5.589593e-01 -1.230712e-01 3.353339e-01 6.025988e-01 6.571773e-01 6.259233e-01 7.553497e-01 3.743337e-01 -1.157459e-01 4.025743e-01 4.093165e-01 2.977997e-01 8.435066e-02 4.879787e-03 -5.473980e-02 -1.736947e-01 -2.550499e-01 -1.622765e-01 -8.964885e-02 -1.592824e-01 -9.557675e-02 2.661735e-02
<VARIANCE> 39
 1.568640e+01 5.627050e+01 2.808144e+01 3.371715e+01 3.656808e+01 2.684031e+01 3.884124e+01 3.746760e+01 3.400135e+01 3.313734e+01 2.820807e+01 2.613990e+01 2.440977e-02 5.471659e-01 1.182465e+00 1.402579e+00 1.714235e+00 2.072403e+00 2.239662e+00 2.368564e+00 2.746482e+00 2.969256e+00 2.422789e+00 2.400328e+00 2.221877e+00 1.141032e-03 1.317804e-01 2.408719e-01 2.446219e-01 2.712565e-01 3.573672e-01 3.550724e-01 4.098795e-01 4.709644e-01 4.203228e-01 4.564584e-01 4.183758e-01 3.842322e-01 2.879356e-04
<GCONST> 8.861979e+01
<MIXTURE> 21 3.955893e-02
<MEAN> 39
 -1.483298e+00 -4.054236e+00 3.572394e+00 6.274283e+00 5.139016e+00 4.657655e+00 2.202759e+00 1.635191e+00 4.635942e+00 4.597929e+00 3.603239e+00 3.126822e+00 1.368700e-02 1.412479e-01 4.440172e-01 1.869590e-01 -4.848992e-01 -1.718091e-01 3.706696e-02 -3.393440e-02 -1.069630e-01 2.435187e-01 -3.765393e-02 -4.964758e-02 7.981330e-02 -1.135922e-02 -3.874825e-02 6.984320e-02 -1.544396e-02 -7.621381e-02 -2.691630e-02 2.646028e-02 3.788102e-02 9.674376e-02 -4.418935e-02 -1.610363e-01 -1.502573e-01 -1.318421e-01 2.502937e-03
<VARIANCE> 39
 1.859517e+01 2.962831e+01 1.538319e+01 2.129555e+01 2.403583e+01 2.778888e+01 3.024809e+01 3.375005e+01 2.264502e+01 2.170852e+01 2.787225e+01 1.817377e+01 1.603506e-02 3.542337e-01 9.080110e-01 9.458885e-01 8.966827e-01 1.699554e+00 1.729227e+00 1.847914e+00 2.217067e+00 2.041729e+00 2.164468e+00 2.236090e+00 1.943123e+00 2.631916e-04 4.933423e-02 9.159705e-02 1.235004e-01 1.749366e-01 3.212830e-01 3.162671e-01 3.190530e-01 4.167187e-01 4.228975e-01 4.101909e-01 4.217999e-01 4.357169e-01 3.470665e-05
<GCONST> 7.415414e+01
<MIXTURE> 22 4.334948e-02
<MEAN> 39
 -1.461640e+00 1.939144e-01 7.961305e-01 5.466919e-01 1.361632e+00 2.264434e+00 -8.047372e-01 1.912513e+00 3.569301e+00 -9.019700e-01 -3.048042e-01 -2.735479e-01 -8.749273e-02 8.477614e-02 7.373484e-02 8.348433e-02 -9.067561e-03 -4.938837e-02 5.704124e-02 1.154840e-01 7.387797e-02 -6.708670e-02 8.443567e-02 -7.654091e-02 -8.827060e-02 -9.308326e-04 -3.779848e-02 -4.095074e-03 3.606299e-02 2.033465e-02 2.627607e-02 4.454020e-02 7.496803e-02 2.454272e-02 -5.530908e-02 1.150366e-01 8.649282e-02 -4.152947e-03 1.278474e-03
<VARIANCE> 39
 6.193585e+00 2.101904e+01 1.048638e+01 1.027439e+01 1.217045e+01 1.976097e+01 1.465495e+01 1.707356e+01 1.378510e+01 1.840282e+01 1.414769e+01 1.832170e+01 5.478012e-03 1.789390e-01 5.690597e-01 5.420449e-01 6.322715e-01 9.385861e-01 9.262398e-01 1.179886e+00 1.252078e+00 1.210073e+00 1.353339e+00 1.107168e+00 1.072316e+00 3.754082e-05 4.046199e-02 9.037787e-02 9.738111e-02 1.182642e-01 1.744494e-01 2.057940e-01 2.335725e-01 2.365934e-01 2.659151e-01 2.467569e-01 2.180215e-01 2.347329e-01 8.846365e-06
<GCONST> 5.185767e+01
<MIXTURE> 23 3.274735e-02
<MEAN> 39
 -2.575155e+00 4.205368e+00 3.788313e+00 3.908893e+00 1.602102e+00 6.125390e+00 3.824774e+00 7.001157e+00 3.489195e+00 2.229038e+00 4.640843e+00 1.779093e+00 -8.952430e-02 2.743805e-02 1.976041e-01 -3.889188e-03 -2.003302e-02 -6.994613e-02 1.038478e-02 1.631833e-02 1.514182e-01 -4.055568e-02 -5.219457e-02 2.648929e-02 4.482394e-02 -7.560402e-04 -4.630908e-03 -7.358336e-02 -4.187611e-03 6.414039e-02 4.725303e-02 -2.970651e-02 -4.512507e-02 -5.495534e-02 4.107033e-02 5.365958e-03 -3.734635e-02 3.088355e-02 9.473775e-04
<VARIANCE> 39
 4.508187e+00 2.453464e+01 9.333301e+00 8.463684e+00 9.613129e+00 1.321335e+01 1.071797e+01 1.176313e+01 1.067440e+01 1.403703e+01 1.128855e+01 1.155122e+01 2.344158e-03 1.041286e-01 4.054413e-01 3.823746e-01 6.445406e-01 9.123713e-01 1.072428e+00 1.085989e+00 9.421851e-01 8.561006e-01 1.080852e+00 9.190124e-01 1.062609e+00 3.754082e-05 2.218193e-02 7.056432e-02 7.984111e-02 1.039259e-01 1.829117e-01 2.336445e-01 2.057630e-01 1.762843e-01 1.584551e-01 2.088298e-01 2.090972e-01 2.141967e-01 6.929222e-06
<GCONST> 4.328738e+01
~h "#i"
<BEGINHMM>
<NUMSTATES> 15
<STATE> 2
<NUMMIXES> 12
<MIXTURE> 1 2.511860e-02
<MEAN> 39
 -1.861852e+00 1.000796e+01 -5.095779e+00 -3.071457e+00 -6.060453e+00 -4.844676e+00 1.808740e+00 -9.559844e-01 2.030243e+00 -1.271703e+00 4.182514e-01 4.182319e+00 8.031081e-01 -1.976969e+00 -1.120146e-01 -7.461604e-01 -1.586787e-01 -4.942261e-01 -6.013691e-01 -1.627245e+00 -1.528775e+00 5.739083e-01 2.640865e+00 4.229195e+00 4.137792e+00 5.959807e-02 2.402740e-01 -3.576238e-01 7.111867e-01 3.990244e-01 6.006727e-01 8.421541e-01 3.602476e-01 4.508285e-01 1.077396e-01 4.588225e-01 -1.291707e-01 -4.416478e-01 -2.983181e-02
<VARIANCE> 39
 1.603274e+01 3.176251e+01 2.601790e+01 2.038222e+01 1.975829e+01 9.763579e+00 1.483849e+01 1.354458e+01 5.969739e+01 8.704018e+01 7.197128e+01 7.755910e+01 5.918209e-03 4.618109e-01 6.142481e-01 9.924567e-01 8.490916e-01 8.786572e-01 1.840396e+00 1.282605e+00 1.741579e+00 3.233917e+00 4.331188e+00 1.388945e+00 3.064723e+00 4.511179e-04 1.982316e-01 3.550287e-01 4.269170e-01 2.548885e-01 3.098960e-01 2.345635e-01 3.695120e-01 2.567358e-01 3.874280e-01 1.423798e+00 1.041414e+00 8.664026e-01 5.069254e-04
<GCONST> 8.490605e+01
<MIXTURE> 2 1.071322e-01
<MEAN> 39
 1.642709e+00 1.083881e+01 -2.091857e+00 6.930535e-01 -2.090329e+00 -3.826456e+00 4.444716e+00 4.492911e+00 3.599608e+00 4.549370e+00 1.963069e+00 3.906557e+00 6.103013e-01 2.789048e-01 1.563622e+00 -1.642586e-01 4.670528e-01 -7.593660e-01 -4.102846e-03 -6.597233e-01 -1.240210e-01 -6.047153e-01 3.677916e-01 -6.698049e-01 5.916712e-01 1.476966e-02 -4.213124e-02 -3.507666e-01 8.299467e-02 -4.420492e-01 -2.115220e-01 -4.603668e-02 -3.023867e-01 -3.565037e-01 -2.988835e-01 -3.649184e-01 -3.114663e-01 -2.217818e-01 1.580097e-02
<VARIANCE> 39
 1.028946e+01 3.280450e+01 3.023446e+01 2.546666e+01 1.911165e+01 3.029211e+01 2.142619e+01 1.996983e+01 2.497629e+01 2.759765e+01 5.263797e+01 2.934927e+01 1.507849e-02 7.409188e-01 2.687557e+00 1.114810e+00 2.079025e+00 1.898467e+00 3.218748e+00 2.941081e+00 3.386296e+00 3.327715e+00 2.655802e+00 4.364685e+00 3.256774e+00 2.209652e-03 1.629558e-01 4.126178e-01 3.002279e-01 3.556765e-01 3.874317e-01 5.059013e-01 5.149146e-01 3.825114e-01 4.006055e-01 3.923650e-01 5.081944e-01 4.954538e-01 1.737423e-04
<GCONST> 9.052715e+01
<MIXTURE> 3 3.122940e-02
<MEAN> 39
 4.516089e-01 -1.273884e+00 -1.921407e+00 -7.558954e+00 -2.849417e+00 4.392751e+00 9.844727e+00 7.648426e+00 5.693291e+00 -1.623700e-01 -2.169725e+00 -4.704596e+00 6.222235e-01 -9.445314e-01 2.528672e+00 -1.306660e+00 -5.943658e-01 -7.068061e-01 -2.944746e+00 -1.006825e+00 -1.356052e-01 5.995847e-01 1.579293e+00 1.793199e+00 8.087220e-01 2.454068e-02 -1.443167e-02 -1.691103e-02 1.229875e-01 8.356783e-01 5.294656e-02 -4.136399e-01 -1.054822e+00 -7.487572e-01 -6.870307e-01 1.651924e-01 2.091368e-01 4.660800e-01 4.588119e-03
<VARIANCE> 39
 1.190869e+01 8.981873e+01 2.449446e+01 1.835843e+01 2.505231e+01 8.600876e+01 5.891015e+01 3.583076e+01 1.022883e+02 1.942018e+02 1.238441e+02 5.519267e+01 2.742050e-02 2.172173e+00 4.606010e+00 2.903347e+00 4.894742e+00 3.520567e+00 7.902763e+00 1.081928e+01 7.321558e+00 1.267463e+01 1.853683e+01 1.118209e+01 1.140619e+01 1.037577e-02 4.161319e-01 5.771866e-01 8.506365e-01 8.581595e-01 5.920308e-01 1.277176e+00 1.166969e+00 9.226589e-01 2.430280e+00 3.292942e+00 2.044430e+00 1.636575e+00 1.020508e-03
<GCONST> 1.280691e+02
<MIXTURE> 4 6.942658e-02
<MEAN> 39
 -1.786946e+00 1.233000e+01 2.398703e+00 -5.489155e+00 -2.680049e+00 -5.912601e+00 -7.644208e+00 1.423742e-01 2.008858e+00 -3.232433e+00 4.695836e+00 5.614578e-01 8.177661e-01 -3.107799e-01 1.806749e+00 -8.415040e-01 1.535343e+00 -5.405631e-01 -3.454521e-01 -1.008446e+00 -5.466079e-01 -4.805723e-01 -1.450246e+00 1.127832e+00 -1.166143e+00 3.519951e-03 2.024077e-01 -5.969111e-01 6.978172e-02 4.098722e-02 -4.724116e-01 4.916814e-01 2.731041e-01 1.975922e-01 -2.452403e-01 3.718463e-01 -4.567924e-01 -2.318916e-01 2.873134e-03
<VARIANCE> 39
 7.834088e+00 2.292781e+01 1.223141e+01 2.151243e+01 1.540326e+01 1.767708e+01 1.827239e+01 1.830772e+01 2.270932e+01 3.009993e+01 1.799730e+01 2.217274e+01 6.493923e-03 3.319386e-01 9.003307e-01 8.063851e-01 1.188047e+00 1.341043e+00 1.610636e+00 1.676881e+00 1.848247e+00 1.617604e+00 2.101994e+00 1.569151e+00 1.628436e+00 1.815021e-04 5.475851e-02 1.940706e-01 1.126931e-01 2.623370e-01 2.326766e-01 2.726268e-01 2.542682e-01 2.638234e-01 2.197540e-01 2.931043e-01 3.721177e-01 3.356633e-01 2.103468e-05
<GCONST> 6.642088e+01
<MIXTURE> 5 1.937938e-01
<MEAN> 39
 2.002853e+00 1.179542e+01 -2.770072e+00 -2.663012e+00 -3.798378e+00 -3.318603e+00 -3.147099e+00 8.853232e-01 -3.025337e+00 -1.314839e+00 -3.346642e+00 -1.645394e+00 7.134252e-01 4.035142e-02 6.899636e-01 1.728621e-03 3.340306e-01 -4.372719e-01 -1.781055e-01 -5.407277e-01 -3.087841e-01 -4.852199e-01 -2.138553e-03 -1.620487e-01 5.366636e-01 9.021373e-03 -1.353410e-01 -5.451754e-02 1.156480e-02 -1.026156e-01 1.940342e-02 -2.581740e-01 -1.091493e-01 -1.012166e-01 4.825174e-02 -1.123759e-02 2.064030e-01 9.401483e-02 9.123696e-03
<VARIANCE> 39
 1.338318e+01 2.312140e+01 2.304224e+01 2.377526e+01 1.796987e+01 1.851146e+01 3.576231e+01 3.111652e+01 2.756867e+01 2.080397e+01 4.919902e+01 4.222951e+01 1.351129e-02 5.133698e-01 8.346106e-01 1.005470e+00 1.214580e+00 1.432168e+00 1.820599e+00 1.918346e+00 1.723837e+00 2.000399e+00 1.554572e+00 2.648189e+00 2.474525e+00 6.037915e-04 7.517304e-02 1.578533e-01 1.876324e-01 2.529864e-01 2.756049e-01 3.483097e-01 3.638641e-01 2.976467e-01 3.860734e-01 3.504073e-01 4.346950e-01 5.529317e-01 5.992145e-05
<GCONST> 7.813862e+01
<MIXTURE> 6 4.951243e-02
<MEAN> 39
 3.440275e+00 1.105558e+01 -2.785203e+00 -4.328203e+00 -8.193545e+00 -8.271241e+00 -9.475379e+00 -1.585371e+00 -4.211604e+00 -2.499402e+00 -1.267603e-01 -3.481841e+00 7.382278e-01 -5.321706e-01 1.896465e+00 -6.013331e-01 -7.304490e-01 -3.599867e-01 -3.796738e-01 -7.833773e-01 6.866042e-01 -5.886734e-01 -7.297175e-01 -1.767863e-01 -1.741269e+00 7.489080e-02 -6.859487e-01 -7.405533e-01 3.590889e-01 6.590886e-01 8.529231e-01 1.058226e+00 9.533594e-01 5.478624e-01 6.856111e-01 4.601667e-01 2.444559e-01 5.766087e-01 -3.997779e-02
<VARIANCE> 39
 1.214047e+01 5.626344e+01 1.203745e+01 2.430754e+01 2.284897e+01 2.664816e+01 3.393138e+01 2.011445e+01 1.858813e+01 4.184331e+01 2.143886e+01 5.797234e+01 1.456557e-02 1.248909e+00 2.576604e+00 1.476057e+00 2.689742e+00 2.398806e+00 2.781462e+00 2.793525e+00 1.983881e+00 2.579359e+00 2.008369e+00 5.428742e+00 3.433875e+00 3.221122e-03 1.671380e-01 4.709947e-01 1.653955e-01 3.227710e-01 3.077597e-01 2.821614e-01 3.372693e-01 2.311383e-01 3.760008e-01 4.973926e-01 3.882046e-01 7.053337e-01 3.365727e-04
<GCONST> 8.992673e+01
<MIXTURE> 7 5.771682e-02
<MEAN> 39
 2.079925e+00 9.685555e+00 1.425887e+00 -1.522951e-01 -5.924880e+00 -2.824019e+00 -6.424069e+00 6.736391e-01 -1.895570e+00 -2.409488e+00 -4.401564e-01 -2.108850e+00 6.470733e-01 4.403377e-01 4.056776e+00 -3.276917e-01 -1.839589e+00 -1.977370e+00 -1.481005e+00 -2.819418e+00 -2.161805e-01 -9.186926e-01 -1.259383e+00 6.922322e-01 -1.640410e+00 1.607496e-01 -6.038560e-01 -9.329169e-01 -2.250088e-01 -1.922240e-01 3.012452e-01 3.014030e-01 6.977239e-01 2.821234e-02 3.798419e-01 1.274335e-01 1.893782e-01 2.491759e-01 -3.315909e-02
<VARIANCE> 39
 1.192321e+01 4.791440e+01 1.966592e+01 2.319577e+01 2.260868e+01 2.665492e+01 3.282117e+01 4.260513e+01 3.332672e+01 2.617018e+01 2.786314e+01 1.596139e+01 1.698923e-02 1.476220e+00 3.528115e+00 2.187317e+00 1.726746e+00 2.696318e+00 2.722466e+00 2.899352e+00 3.629682e+00 2.373894e+00 1.989025e+00 4.148725e+00 2.501451e+00 3.468733e-03 1.988467e-01 6.163489e-01 2.639022e-01 3.739680e-01 2.710161e-01 4.112032e-01 5.134397e-01 8.160628e-01 4.028455e-01 5.274388e-01 5.794256e-01 4.094259e-01 5.335370e-04
<GCONST> 9.413705e+01
<MIXTURE> 8 1.181157e-01
<MEAN> 39
 7.413248e-02 3.909009e+00 5.145489e+00 -1.092464e+01 -2.593224e+00 -3.300877e+00 -2.237254e+00 3.779583e+00 3.063574e+00 1.524476e+00 -2.578700e-01 -1.725245e-01 8.095411e-01 -1.171039e+00 4.072387e+00 -8.097111e-01 -4.084635e-01 1.803587e+00 -2.747500e+00 -1.773466e+00 -3.134613e-02 8.635883e-02 -1.334325e+00 1.501796e+00 3.945253e-01 -1.007526e-02 2.468300e-01 -1.995263e-01 -7.862449e-01 1.451408e+00 -4.240198e-01 -2.049937e-01 5.504981e-01 -2.452115e-01 -7.850083e-01 -3.201323e-01 1.047479e-01 -2.305553e-01 1.709835e-03
<VARIANCE> 39
 1.121059e+01 3.751129e+01 1.610948e+01 1.464553e+01 2.270226e+01 4.520095e+01 4.678590e+01 2.507455e+01 3.353085e+01 3.872274e+01 3.007959e+01 3.187509e+01 6.903582e-03 5.150472e-01 1.598090e+00 1.642159e+00 3.841486e+00 1.678314e+00 2.463426e+00 4.375150e+00 3.810088e+00 3.184334e+00 4.590859e+00 3.315228e+00 3.654008e+00 2.737821e-04 1.111996e-01 3.387536e-01 2.640847e-01 3.752057e-01 6.309224e-01 8.084419e-01 5.509733e-01 6.243616e-01 6.111059e-01 9.061691e-01 6.420485e-01 5.332982e-01 3.139915e-05
<GCONST> 8.973324e+01
<MIXTURE> 9 4.264010e-02
<MEAN> 39
 -2.001776e-01 6.241077e+00 -4.113103e-01 -4.319155e+00 -8.520469e+00 -4.991621e+00 -5.714389e+00 -5.128057e+00 1.772048e+00 -2.161279e+00 5.635518e+00 5.593856e+00 5.553003e-01 8.554165e-02 1.380336e+00 2.374739e-01 6.052121e-01 -4.138561e-01 3.264983e-01 -1.089871e+00 -2.132757e-01 -7.313944e-01 -1.180986e+00 -7.511634e-01 -1.883159e+00 3.179905e-02 2.444789e-02 3.072463e-01 4.746393e-02 1.027293e-01 7.197034e-02 2.044673e-01 2.160064e-01 6.912577e-01 2.742292e-01 3.564343e-01 -1.162690e-01 -4.333415e-01 4.241840e-03
<VARIANCE> 39
 1.244300e+01 4.369765e+01 4.103792e+01 1.367511e+01 2.894184e+01 1.616545e+01 2.941309e+01 3.863861e+01 4.176870e+01 9.486012e+01 7.762221e+01 8.453427e+01 3.682667e-02 9.054347e-01 2.657797e+00 1.718807e+00 1.879182e+00 1.175559e+00 2.128624e+00 3.946525e+00 4.953879e+00 8.028055e+00 5.134373e+00 7.646473e+00 5.458617e+00 6.279314e-04 1.968714e-01 4.372510e-01 3.679520e-01 3.079204e-01 3.131564e-01 4.029865e-01 5.734988e-01 4.459328e-01 1.152403e+00 8.078985e-01 1.335338e+00 1.243167e+00 1.322266e-04
<GCONST> 1.007205e+02
<MIXTURE> 10 6.942658e-02
<MEAN> 39
 -1.786946e+00 1.233000e+01 2.398703e+00 -5.489155e+00 -2.680049e+00 -5.912601e+00 -7.644208e+00 1.423742e-01 2.008858e+00 -3.232433e+00 4.695836e+00 5.614578e-01 8.177661e-01 -3.107799e-01 1.806749e+00 -8.415040e-01 1.535343e+00 -5.405631e-01 -3.454521e-01 -1.008446e+00 -5.466079e-01 -4.805723e-01 -1.450246e+00 1.127832e+00 -1.166143e+00 3.519951e-03 2.024077e-01 -5.969111e-01 6.978172e-02 4.098722e-02 -4.724116e-01 4.916814e-01 2.731041e-01 1.975922e-01 -2.452403e-01 3.718463e-01 -4.567924e-01 -2.318916e-01 2.873134e-03
<VARIANCE> 39
 7.834088e+00 2.292781e+01 1.223141e+01 2.151243e+01 1.540326e+01 1.767708e+01 1.827239e+01 1.830772e+01 2.270932e+01 3.009993e+01 1.799730e+01 2.217274e+01 6.493923e-03 3.319386e-01 9.003307e-01 8.063851e-01 1.188047e+00 1.341043e+00 1.610636e+00 1.676881e+00 1.848247e+00 1.617604e+00 2.101994e+00 1.569151e+00 1.628436e+00 1.815021e-04 5.475851e-02 1.940706e-01 1.126931e-01 2.623370e-01 2.326766e-01 2.726268e-01 2.542682e-01 2.638234e-01 2.197540e-01 2.931043e-01 3.721177e-01 3.356633e-01 2.103468e-05
<GCONST> 6.642088e+01
<MIXTURE> 11 1.271408e-01
<MEAN> 39
 -1.660674e+00 1.014352e+01 -2.829684e+00 -7.562125e+00 -2.612038e+00 -9.977740e+00 2.057115e-01 6.835837e-01 -3.272773e-01 -9.937382e-01 -1.041132e+00 -3.337358e+00 8.024065e-01 -2.614299e-01 2.045869e+00 -1.293143e+00 2.032069e+00 -1.123464e+00 -7.119382e-01 -4.196072e-01 -1.347720e+00 -1.126876e+00 -3.978644e-02 -5.451937e-01 7.938992e-01 -1.138922e-02 2.944107e-01 -6.853423e-01 4.007724e-01 3.061061e-01 -3.665141e-01 1.011815e+00 -1.474037e-01 -3.369602e-02 -1.311813e-01 -1.404512e-01 -1.894577e-01 2.886523e-01 2.515042e-03
<VARIANCE> 39
 8.326869e+00 2.766896e+01 1.612956e+01 4.004893e+01 2.283366e+01 2.980976e+01 4.901809e+01 3.584417e+01 3.884700e+01 4.192094e+01 3.590414e+01 4.207738e+01 7.895375e-03 7.556415e-01 1.558715e+00 1.582410e+00 2.137036e+00 2.437796e+00 5.221535e+00 3.433424e+00 2.419755e+00 4.348979e+00 5.821048e+00 3.663959e+00 4.301802e+00 3.683266e-04 9.415665e-02 3.363993e-01 2.112172e-01 6.332107e-01 6.125370e-01 5.029588e-01 4.517056e-01 6.438563e-01 7.227184e-01 7.257901e-01 5.958367e-01 6.912170e-01 3.249969e-05
<GCONST> 9.183906e+01
<MIXTURE> 12 1.087436e-01
<MEAN> 39
 2.657228e+00 1.006394e+01 -3.857090e+00 -2.760045e+00 -4.513715e+00 -3.104523e+00 2.151933e+00 4.181643e+00 4.941628e+00 5.265122e+00 2.437747e+00 4.906277e+00 6.722137e-01 -1.334577e-01 2.128155e+00 -2.293282e+00 -1.891702e+00 -2.326980e+00 -2.488441e+00 -1.112712e+00 -2.050095e+00 -1.742044e+00 -1.303871e+00 -1.042697e+00 1.128869e+00 1.548571e-01 -6.408243e-01 -9.495046e-01 7.402756e-01 7.119430e-01 8.059903e-01 8.105505e-01 -1.139862e-01 -1.572725e-01 -4.300197e-01 -3.592395e-01 -1.274552e-01 -2.874557e-01 -3.796771e-02
<VARIANCE> 39
 1.371112e+01 4.762409e+01 2.379262e+01 2.130528e+01 2.532992e+01 2.184820e+01 2.994972e+01 2.704450e+01 3.841198e+01 2.874086e+01 4.027515e+01 4.352121e+01 2.021872e-02 1.968269e+00 3.376022e+00 2.666740e+00 2.335635e+00 2.915344e+00 3.459716e+00 2.513324e+00 2.478887e+00 3.011075e+00 3.101230e+00 5.188777e+00 5.705208e+00 3.578577e-03 1.644614e-01 3.520099e-01 3.561203e-01 4.170783e-01 4.442202e-01 5.453451e-01 4.214821e-01 4.038706e-01 5.387912e-01 5.142094e-01 7.526755e-01 5.586867e-01 4.683732e-04
<GCONST> 9.806686e+01
<STATE> 3
<NUMMIXES> 12
<MIXTURE> 1 4.950556e-02
<MEAN> 39
 -3.542698e+00 9.389506e+00 -7.409689e+00 -4.429174e+00 -6.600122e+00 -6.274817e+00 3.869299e-01 1.862086e-02 4.504760e+00 6.669043e+00 8.459587e+00 1.240066e+01 8.735140e-01 -6.756188e-01 -2.742728e-01 -2.878633e-01 -6.807566e-03 -4.143478e-01 -3.612815e-01 -1.024834e+00 -3.494984e-01 8.866767e-01 1.313683e+00 2.076546e+00 1.940671e+00 2.480060e-02 4.101970e-01 1.538560e-01 2.796917e-01 2.350607e-01 1.762734e-01 1.847481e-01 3.036406e-01 2.515999e-01 -7.040772e-03 -2.855374e-01 -6.166409e-01 -7.752437e-01 -9.268291e-03
<VARIANCE> 39
 2.482373e+01 1.997515e+01 2.271862e+01 1.776978e+01 2.617792e+01 2.139688e+01 2.651237e+01 4.003366e+01 6.114037e+01 6.041866e+01 4.639894e+01 8.619561e+01 4.544671e-03 6.425109e-01 6.337628e-01 7.814557e-01 1.110425e+00 1.284845e+00 1.019445e+00 2.035240e+00 1.046305e+00 2.740866e+00 3.375724e+00 3.522340e+00 4.408020e+00 2.125730e-04 1.143745e-01 1.235976e-01 1.448846e-01 2.390575e-01 2.896096e-01 2.571092e-01 3.289485e-01 3.397774e-01 4.732111e-01 5.591212e-01 4.808639e-01 6.040366e-01 5.288746e-05
<GCONST> 7.996703e+01
<MIXTURE> 2 6.239365e-02
<MEAN> 39
 -1.057187e+00 1.214909e+01 -4.132202e+00 -3.426407e+00 -6.224071e+00 -7.841888e+00 -2.924818e+00 -6.698416e-01 -5.316209e+00 -2.436769e+00 -7.219222e+00 8.276464e-01 8.364713e-01 -4.020633e-01 4.084452e-02 1.544481e-01 5.892794e-01 3.481320e-01 6.985275e-02 -2.190884e-01 -3.232171e-01 -2.948812e-01 -5.872239e-01 -1.053600e+00 -4.684403e-01 2.508670e-02 2.348126e-01 5.615804e-02 2.392644e-01 2.699266e-01 2.833756e-01 3.077861e-01 2.588024e-01 2.686283e-01 5.220320e-01 6.098195e-01 8.240549e-01 4.499587e-01 -8.035569e-03
<VARIANCE> 39
 1.061671e+01 4.046395e+01 1.042341e+01 1.190920e+01 1.476087e+01 1.274565e+01 1.968667e+01 1.377660e+01 2.036775e+01 2.883515e+01 3.026578e+01 2.504171e+01 1.019954e-02 5.536532e-01 4.913129e-01 3.832568e-01 6.786706e-01 6.814636e-01 5.029289e-01 1.038377e+00 9.866718e-01 7.068528e-01 1.268201e+00 2.646315e+00 1.688516e+00 1.772137e-04 1.016284e-01 9.632920e-02 1.013336e-01 1.100729e-01 1.292731e-01 2.071176e-01 1.909037e-01 1.527354e-01 2.128228e-01 2.071476e-01 3.511966e-01 2.922572e-01 8.325066e-05
<GCONST> 5.980708e+01
<MIXTURE> 3 3.435462e-02
<MEAN> 39
 -3.306822e+00 1.062220e+01 -6.244172e+00 -4.347982e+00 -9.006489e+00 -1.071452e+01 -4.722427e+00 -5.316807e+00 -6.218878e+00 -5.372749e+00 -4.802008e+00 -2.490946e+00 8.418265e-01 -4.401356e-01 2.709083e-01 -1.084672e-01 1.091332e+00 -3.616024e-01 4.529004e-01 -5.625626e-01 -7.177549e-01 -8.606027e-01 -8.835295e-01 -5.006606e-01 5.699655e-01 1.684248e-02 4.180486e-01 -5.251721e-02 7.032957e-01 1.923918e-01 6.500649e-01 6.945089e-01 4.036270e-01 8.372315e-01 9.309749e-01 8.649190e-01 4.438278e-01 4.630622e-01 -4.674251e-03
<VARIANCE> 39
 1.668864e+01 3.677131e+01 1.534097e+01 2.325833e+01 2.150007e+01 3.776123e+01 5.446904e+01 1.787250e+01 2.857746e+01 1.437709e+01 2.494127e+01 4.909715e+01 6.864441e-03 2.980812e-01 6.397483e-01 7.817173e-01 1.714575e+00 1.612414e+00 1.737463e+00 1.857793e+00 2.427891e+00 1.375573e+00 1.687200e+00 3.657578e+00 5.121722e+00 3.658400e-04 9.499110e-02 1.910609e-01 1.478304e-01 3.732927e-01 2.571004e-01 4.395235e-01 3.432049e-01 2.029951e-01 2.840555e-01 2.037511e-01 3.560258e-01 4.238669e-01 1.054893e-04
<GCONST> 7.708458e+01
<MIXTURE> 4 1.040396e-01
<MEAN> 39
 -1.617361e+00 1.504923e+01 9.414082e-01 -4.053730e+00 -4.644877e+00 -4.638607e+00 -8.982671e+00 -1.950245e-01 -3.304525e-01 -4.581351e+00 6.226919e+00 -3.269740e+00 8.365984e-01 -4.114076e-01 4.240771e-01 -1.842848e-01 3.530736e-01 -1.194468e-01 6.187201e-02 -1.533464e-01 3.295976e-02 -2.114742e-01 -4.648384e-01 2.007584e-02 -4.953118e-01 1.521367e-02 7.857386e-02 -1.733136e-01 7.176175e-02 -8.734348e-02 6.546841e-02 -1.801248e-02 4.949215e-02 4.041628e-02 3.718181e-02 1.175347e-01 -1.650902e-01 1.396502e-01 -2.034195e-03
<VARIANCE> 39
 8.582705e+00 1.979299e+01 6.472473e+00 9.784900e+00 1.550991e+01 1.028216e+01 1.063667e+01 1.297443e+01 1.706517e+01 1.878379e+01 9.429063e+00 5.564890e+00 5.496994e-03 3.362854e-01 1.704185e-01 2.688745e-01 3.147237e-01 5.327911e-01 3.646221e-01 5.148235e-01 4.005349e-01 7.240303e-01 3.727536e-01 5.055028e-01 4.801440e-01 1.965460e-04 4.666261e-02 5.014389e-02 4.613242e-02 7.578317e-02 8.146451e-02 6.518129e-02 7.277992e-02 8.247146e-02 8.204042e-02 1.035461e-01 6.366379e-02 6.279286e-02 2.548082e-05
<GCONST> 3.274460e+01
<MIXTURE> 5 1.816414e-01
<MEAN> 39
 2.931157e-01 1.213222e+01 -1.291372e+00 -1.002339e+00 -6.394205e+00 -6.776835e+00 -7.241446e+00 -3.378862e-01 -3.191041e+00 -1.235853e+00 3.359059e-01 -3.144207e+00 8.135137e-01 2.173312e-02 1.046903e+00 -7.660038e-02 6.425899e-01 -5.511313e-01 1.660696e-01 -5.464080e-01 -1.733256e-01 -6.144445e-01 1.111377e-01 -7.709605e-02 1.052931e-01 4.569884e-03 -3.354054e-02 -1.845488e-01 -5.804480e-03 -3.716258e-01 1.773729e-01 1.291032e-01 1.676279e-01 1.198521e-01 2.622088e-01 -6.096583e-02 -1.045881e-01 1.030236e-01 1.293335e-03
<VARIANCE> 39
 1.094839e+01 2.600323e+01 2.313398e+01 2.872658e+01 2.446275e+01 2.495011e+01 4.387307e+01 3.598816e+01 3.812214e+01 3.336365e+01 4.977897e+01 3.457470e+01 4.980970e-03 2.905825e-01 7.724327e-01 1.255036e+00 1.412462e+00 1.401149e+00 1.970788e+00 1.905724e+00 1.742498e+00 1.850291e+00 2.139279e+00 1.921915e+00 2.032413e+00 1.442248e-04 3.910984e-02 1.198760e-01 1.900215e-01 2.249839e-01 2.891161e-01 3.858303e-01 3.175301e-01 3.791298e-01 3.263205e-01 3.706113e-01 3.240234e-01 3.672288e-01 1.085689e-05
<GCONST> 7.359440e+01
<MIXTURE> 6 1.196052e-01
<MEAN> 39
 -7.464102e-02 1.135984e+01 -2.589689e+00 -3.694255e+00 -5.890118e+00 -3.574352e+00 -1.730106e+00 1.783892e+00 -6.390933e-01 1.403855e-01 -1.971578e-01 1.765076e+00 8.131697e-01 -1.044219e+00 3.009952e-02 -4.545463e-01 -3.332256e-01 -5.567023e-01 -7.136652e-01 -1.055419e+00 -1.267525e+00 -1.382546e+00 -1.174844e+00 -6.414343e-01 -2.659553e-01 6.198309e-02 -1.837157e-01 -9.368683e-01 3.759063e-01 6.447889e-01 6.922383e-01 5.619216e-01 2.491383e-01 1.488950e-01 3.344547e-01 2.302136e-01 2.311290e-01 2.272578e-02 -4.084508e-02
<VARIANCE> 39
 1.223223e+01 5.247636e+01 2.252818e+01 1.694911e+01 2.384506e+01 2.653170e+01 4.004608e+01 2.677785e+01 2.521815e+01 2.911876e+01 3.407961e+01 4.247860e+01 7.921903e-03 7.991725e-01 6.672523e-01 7.152539e-01 1.446887e+00 1.361320e+00 1.278626e+00 1.600474e+00 2.701048e+00 2.298745e+00 1.955434e+00 3.569246e+00 3.950997e+00 5.063739e-04 1.571771e-01 3.351983e-01 3.487901e-01 2.242074e-01 3.448522e-01 4.264004e-01 4.887991e-01 3.991239e-01 2.561872e-01 3.154350e-01 4.768926e-01 6.000234e-01 2.692667e-04
<GCONST> 8.350756e+01
<MIXTURE> 7 7.090352e-02
<MEAN> 39
 3.766626e+00 1.567569e+01 -2.063434e+00 2.807723e-01 -3.809458e+00 -3.676725e+00 3.365948e+00 2.787776e+00 9.611328e-01 5.823199e+00 1.451044e-01 8.174042e+00 6.736299e-01 -1.903313e-02 5.294372e-01 -3.872894e-01 -2.155293e-01 -6.224429e-01 -2.421409e-01 -3.892333e-01 -2.967534e-01 -3.604549e-01 -8.528737e-01 -9.105322e-01 -2.066636e-02 2.845559e-02 -3.455772e-01 -4.905150e-01 -2.489153e-01 -2.313724e-01 -1.499574e-01 -2.971395e-01 -3.969495e-01 -3.517205e-01 -2.925398e-01 -6.805385e-01 -4.455401e-01 -6.319076e-01 7.434637e-03
<VARIANCE> 39
 6.455477e+00 1.374665e+01 1.827382e+01 1.495317e+01 1.389129e+01 1.249260e+01 1.920247e+01 2.331771e+01 2.114920e+01 2.504816e+01 1.830626e+01 1.985074e+01 8.819968e-03 6.169619e-01 9.616702e-01 8.354061e-01 1.013500e+00 8.902758e-01 8.792893e-01 1.285012e+00 1.228655e+00 1.145460e+00 1.646430e+00 1.723804e+00 1.531646e+00 8.953511e-04 9.418216e-02 1.476595e-01 1.137110e-01 1.772716e-01 1.764689e-01 1.849203e-01 2.724434e-01 2.683192e-01 2.595567e-01 2.472235e-01 4.248501e-01 3.747511e-01 1.092723e-04
<GCONST> 6.665821e+01
<MIXTURE> 8 1.104508e-01
<MEAN> 39
 1.315547e+00 1.328320e+01 -2.692640e+00 -8.551184e-01 -4.789287e+00 -4.327383e+00 1.229867e+00 1.077108e+00 -4.605671e-02 1.328699e+00 -3.232644e+00 4.812275e+00 7.961403e-01 -8.760425e-01 -4.357025e-01 -8.518149e-01 -4.162348e-01 -9.613085e-01 -1.080964e+00 -1.458473e+00 -1.312553e+00 -1.369694e+00 -1.451347e+00 -1.210101e+00 -6.204870e-01 3.468701e-02 -1.347688e-01 -3.442188e-01 -9.236691e-02 -7.218072e-02 -5.299222e-03 -1.814582e-01 -1.939244e-01 -1.970927e-01 -1.523709e-01 -1.227655e-01 -2.062493e-02 -1.694314e-01 -4.491397e-03
<VARIANCE> 39
 1.447413e+01 2.660063e+01 1.415795e+01 1.410674e+01 1.007384e+01 1.361149e+01 1.502216e+01 2.657499e+01 1.821871e+01 2.700909e+01 1.777777e+01 1.849433e+01 6.725722e-03 5.829688e-01 5.492080e-01 5.700840e-01 8.646296e-01 9.867842e-01 1.225332e+00 1.199500e+00 1.171513e+00 1.537210e+00 1.708331e+00 2.195433e+00 2.281526e+00 3.097869e-04 8.843384e-02 9.398466e-02 1.191208e-01 1.522532e-01 2.269766e-01 1.602592e-01 2.113719e-01 2.539114e-01 2.258892e-01 2.280145e-01 2.694405e-01 2.484178e-01 5.287070e-05
<GCONST> 6.345436e+01
<MIXTURE> 9 5.262657e-02
<MEAN> 39
 -2.694195e+00 9.498707e+00 -6.904031e+00 -3.289547e+00 -9.762689e+00 -9.339084e+00 -7.040397e+00 -7.452066e+00 -6.847828e+00 -4.314828e+00 -7.369266e+00 1.209302e+00 8.683589e-01 1.353621e-02 -2.312578e-01 -1.998280e-01 -9.930788e-03 -3.626218e-01 -1.312836e-01 -5.141224e-01 -7.171515e-01 -3.754593e-01 -4.566825e-01 6.478927e-03 7.432352e-02 1.399780e-02 3.064799e-01 3.458875e-01 4.280787e-01 3.423242e-01 5.497153e-01 5.185998e-01 7.763164e-01 8.041404e-01 6.099858e-01 5.808055e-01 5.430780e-01 3.086939e-01 -3.605243e-03
<VARIANCE> 39
 1.310448e+01 1.734469e+01 1.365840e+01 1.902542e+01 9.681750e+00 2.114990e+01 1.608194e+01 1.973435e+01 2.786885e+01 1.726963e+01 2.013983e+01 3.180644e+01 6.991575e-03 2.881363e-01 3.994341e-01 5.382943e-01 7.642357e-01 8.922503e-01 6.662220e-01 1.151798e+00 1.136171e+00 1.174057e+00 1.443698e+00 8.467423e-01 1.227569e+00 8.330629e-05 4.910973e-02 8.256514e-02 7.428894e-02 1.720199e-01 1.068879e-01 1.658064e-01 1.594041e-01 1.928069e-01 1.906300e-01 2.253603e-01 1.989304e-01 2.416543e-01 1.746545e-05
<GCONST> 5.477233e+01
<MIXTURE> 10 7.181884e-02
<MEAN> 39
 -5.353267e-01 1.616582e+01 -7.425195e-03 -1.178023e+00 -6.480413e+00 -2.505092e+00 -1.206174e+01 1.923519e+00 -1.890928e+00 -3.260499e+00 3.778507e+00 -4.571354e+00 7.867224e-01 -7.321612e-01 8.840785e-01 2.302009e-02 -4.347114e-03 -1.876534e-01 2.662379e-01 -4.586950e-01 1.598480e-01 -3.476693e-01 -4.980290e-01 4.211661e-01 -7.303961e-02 2.954346e-02 9.876060e-02 -4.871769e-01 1.502929e-01 -3.175841e-02 4.697146e-02 -5.469605e-02 3.751653e-01 -1.727618e-01 3.026484e-02 1.443139e-01 -1.385206e-01 2.507601e-01 -5.908483e-03
<VARIANCE> 39
 9.146394e+00 3.038499e+01 1.951995e+01 1.578583e+01 2.276179e+01 2.266644e+01 2.409987e+01 2.275366e+01 2.437883e+01 2.735513e+01 1.732077e+01 1.042886e+01 6.999242e-03 6.919558e-01 1.049645e+00 8.595998e-01 1.404134e+00 1.198091e+00 1.057067e+00 1.591461e+00 2.416980e+00 1.768409e+00 1.493469e+00 1.185741e+00 1.274380e+00 2.997208e-04 1.232514e-01 1.820294e-01 2.191831e-01 2.767697e-01 2.299516e-01 1.902500e-01 2.141830e-01 3.152687e-01 2.951514e-01 2.530824e-01 2.180801e-01 2.167858e-01 8.215131e-05
<GCONST> 6.957114e+01
<MIXTURE> 11 7.181884e-02
<MEAN> 39
 -5.353267e-01 1.616582e+01 -7.425195e-03 -1.178023e+00 -6.480413e+00 -2.505092e+00 -1.206174e+01 1.923519e+00 -1.890928e+00 -3.260499e+00 3.778507e+00 -4.571354e+00 7.867224e-01 -7.321612e-01 8.840785e-01 2.302009e-02 -4.347114e-03 -1.876534e-01 2.662379e-01 -4.586950e-01 1.598480e-01 -3.476693e-01 -4.980290e-01 4.211661e-01 -7.303961e-02 2.954346e-02 9.876060e-02 -4.871769e-01 1.502929e-01 -3.175841e-02 4.697146e-02 -5.469605e-02 3.751653e-01 -1.727618e-01 3.026484e-02 1.443139e-01 -1.385206e-01 2.507601e-01 -5.908483e-03
<VARIANCE> 39
 9.146394e+00 3.038499e+01 1.951995e+01 1.578583e+01 2.276179e+01 2.266644e+01 2.409987e+01 2.275366e+01 2.437883e+01 2.735513e+01 1.732077e+01 1.042886e+01 6.999242e-03 6.919558e-01 1.049645e+00 8.595998e-01 1.404134e+00 1.198091e+00 1.057067e+00 1.591461e+00 2.416980e+00 1.768409e+00 1.493469e+00 1.185741e+00 1.274380e+00 2.997208e-04 1.232514e-01 1.820294e-01 2.191831e-01 2.767697e-01 2.299516e-01 1.902500e-01 2.141830e-01 3.152687e-01 2.951514e-01 2.530824e-01 2.180801e-01 2.167858e-01 8.215131e-05
<GCONST> 6.957114e+01
<MIXTURE> 12 7.083948e-02
<MEAN> 39
 -7.813374e-01 1.309225e+01 -5.035119e+00 -1.777339e+00 -7.578054e+00 -7.236942e+00 -2.047429e+00 -2.188885e+00 -3.721370e+00 -1.765695e+00 -6.709569e+00 3.906538e+00 8.281893e-01 -8.536726e-01 -7.874749e-01 -9.610768e-01 -2.995895e-01 -8.812816e-01 -1.390134e+00 -1.723553e+00 -1.696481e+00 -1.344166e+00 -1.466855e+00 -1.371984e+00 -6.766343e-01 3.016961e-02 2.538403e-01 4.889205e-02 2.710476e-01 1.434082e-01 2.681359e-01 2.432552e-01 2.567578e-01 2.702781e-01 3.625832e-01 3.591437e-01 3.954852e-01 1.372158e-01 -7.573645e-03
<VARIANCE> 39
 1.215772e+01 2.161949e+01 1.643975e+01 1.386047e+01 1.072038e+01 1.100768e+01 1.993857e+01 2.515185e+01 1.515911e+01 2.376310e+01 1.463110e+01 2.105347e+01 5.708594e-03 3.419190e-01 5.216887e-01 7.229048e-01 8.001117e-01 9.858732e-01 8.660584e-01 6.858352e-01 1.308074e+00 8.782367e-01 1.528487e+00 1.634939e+00 2.326788e+00 1.860638e-04 6.065250e-02 6.729273e-02 7.511367e-02 1.146001e-01 1.456194e-01 1.537392e-01 2.521502e-01 1.631535e-01 1.979624e-01 2.720689e-01 2.419750e-01 2.862297e-01 3.197454e-05
<GCONST> 5.743195e+01
<STATE> 4
<NUMMIXES> 12
<MIXTURE> 1 7.956110e-02
<MEAN> 39
 -1.424858e+00 1.074504e+01 -4.179791e+00 -2.860662e+00 -5.240438e+00 -3.208956e+00 -3.362287e+00 -2.631982e+00 1.348563e+00 -1.350408e-01 5.426005e+00 3.900650e+00 8.824700e-01 -2.729771e-01 1.692463e-01 3.634996e-01 4.468029e-01 5.568656e-02 1.120925e-01 1.008731e-01 -2.766913e-01 -4.131574e-02 7.343917e-02 5.268604e-01 7.474119e-01 2.334194e-02 2.381271e-01 -5.475161e-02 1.233015e-01 1.944521e-01 1.677725e-01 4.882665e-02 2.405040e-01 3.713645e-01 1.578202e-01 1.005617e-01 -2.907234e-01 -1.927251e-01 -1.114884e-02
<VARIANCE> 39
 1.518228e+01 4.538269e+01 3.325415e+01 1.928383e+01 2.958812e+01 3.152135e+01 3.599303e+01 4.022351e+01 5.404935e+01 6.906651e+01 4.129654e+01 8.930131e+01 7.804504e-03 7.250457e-01 6.912332e-01 1.116655e+00 1.192940e+00 1.568067e+00 1.662649e+00 1.528291e+00 2.100441e+00 3.059097e+00 2.586648e+00 2.459587e+00 3.673766e+00 2.281543e-04 1.009389e-01 1.560952e-01 1.879649e-01 2.200651e-01 3.120578e-01 2.573707e-01 2.480751e-01 4.542727e-01 4.501781e-01 3.925551e-01 4.262223e-01 5.278681e-01 1.478015e-04
<GCONST> 8.389589e+01
<MIXTURE> 2 1.028477e-01
<MEAN> 39
 -1.383941e+00 1.175056e+01 -5.335521e+00 -1.655960e+00 -7.871468e+00 -7.331402e+00 -4.116402e+00 -4.727438e+00 -5.185021e+00 -3.341011e+00 -5.853797e+00 1.876280e+00 8.642176e-01 3.988035e-01 4.995525e-01 5.345898e-01 8.350679e-01 5.815806e-01 6.705026e-01 5.065284e-01 5.731874e-01 6.564611e-01 4.584132e-01 6.325048e-01 5.822616e-01 1.035750e-02 9.919178e-02 1.227552e-01 1.737548e-01 5.635853e-02 2.625290e-01 1.264007e-01 2.767090e-01 4.349294e-01 3.291051e-01 3.225091e-01 2.837469e-01 8.903312e-02 -2.794939e-03
<VARIANCE> 39
 1.292076e+01 2.258523e+01 1.305017e+01 1.711762e+01 1.458982e+01 2.166289e+01 1.836902e+01 2.166899e+01 2.067624e+01 2.010158e+01 3.296997e+01 4.213002e+01 9.329081e-03 2.360190e-01 3.884105e-01 4.821717e-01 7.129071e-01 8.816845e-01 1.125718e+00 1.244913e+00 9.271363e-01 9.071491e-01 1.081007e+00 1.154703e+00 1.176328e+00 8.572865e-05 3.749247e-02 5.376694e-02 8.357645e-02 1.229724e-01 1.267542e-01 1.538360e-01 1.687186e-01 1.536291e-01 1.502060e-01 1.602420e-01 2.887234e-01 2.596664e-01 1.697223e-05
<GCONST> 5.502112e+01
<MIXTURE> 3 1.388375e-01
<MEAN> 39
 -1.091867e+00 1.629290e+01 5.751134e-01 -1.541494e+00 -6.877311e+00 -6.838591e+00 -9.888798e+00 8.365172e-01 -1.646786e+00 -2.444300e+00 1.917908e+00 -3.883830e+00 8.431438e-01 -7.288598e-02 4.849883e-01 -7.435086e-02 1.079071e-01 -2.619466e-01 -5.531687e-02 -2.091857e-01 -8.339220e-02 1.031030e-01 -1.396111e-01 -1.104439e-01 -1.924116e-01 5.664338e-03 7.188018e-02 -2.303501e-01 -9.848808e-02 -1.611690e-01 1.788403e-01 1.264794e-01 9.618350e-02 -1.195078e-01 -4.225182e-02 3.951025e-02 -2.147844e-02 1.358029e-01 -1.044454e-03
<VARIANCE> 39
 8.595346e+00 2.210034e+01 2.493376e+01 1.707002e+01 2.390636e+01 2.646044e+01 3.279103e+01 2.920613e+01 2.547561e+01 5.141124e+01 4.433252e+01 2.438585e+01 4.809543e-03 1.491224e-01 4.132241e-01 5.418726e-01 6.904231e-01 5.985490e-01 1.101939e+00 1.245405e+00 1.061146e+00 1.095828e+00 1.201802e+00 8.681333e-01 9.083868e-01 6.616966e-05 2.579271e-02 5.707213e-02 1.305651e-01 1.648563e-01 1.262210e-01 1.632085e-01 2.197736e-01 1.700499e-01 2.162275e-01 2.293355e-01 1.507668e-01 1.920895e-01 7.968006e-06
<GCONST> 5.581049e+01
<MIXTURE> 4 8.878294e-02
<MEAN> 39
 -3.146132e+00 6.299068e+00 -1.751532e+00 -2.670317e+00 -3.324449e+00 -3.811886e+00 -2.845109e+00 4.960135e-01 -1.260390e+00 3.478302e-01 2.646710e+00 4.529882e+00 9.721292e-01 2.840638e-02 -3.197329e-02 -4.283889e-02 -2.596343e-02 1.178848e-01 5.405216e-02 -6.578166e-02 -3.087436e-02 9.610073e-03 1.107947e-02 -1.998050e-02 -8.076562e-02 -7.353238e-04 1.655919e-02 6.362067e-03 2.027701e-02 -1.009296e-03 6.105463e-03 -5.011834e-03 7.622818e-03 2.889075e-02 -2.612178e-03 1.974665e-02 -2.372032e-03 -1.514215e-02 -6.225653e-04
<VARIANCE> 39
 5.465168e+00 1.447141e+01 4.510421e+00 5.134225e+00 5.923707e+00 7.067926e+00 1.265252e+01 5.040993e+00 2.577313e+01 2.390816e+01 3.081560e+01 3.257601e+01 8.178990e-04 3.273659e-02 6.959420e-02 1.012763e-01 1.014670e-01 1.427419e-01 9.231868e-02 1.939836e-01 1.954990e-01 1.526569e-01 2.103603e-01 1.406028e-01 1.567753e-01 3.754082e-05 3.831828e-03 1.127110e-02 1.204096e-02 1.558850e-02 2.494989e-02 1.317208e-02 2.593500e-02 2.640419e-02 2.324996e-02 3.369198e-02 2.441693e-02 3.537537e-02 3.730629e-06
<GCONST> -3.043192e+00
<MIXTURE> 5 4.088297e-02
<MEAN> 39
 2.497056e+00 1.214468e+01 -2.451436e+00 3.924642e+00 -4.715074e+00 -3.468579e-01 -7.442088e+00 6.850337e+00 -6.892313e+00 1.844815e+00 -4.031546e+00 -1.843282e+00 8.910318e-01 1.257959e-01 2.165640e-01 1.538258e-01 8.772361e-02 -9.861776e-02 -3.574140e-02 1.567996e-01 -1.239223e-01 2.075483e-01 2.486602e-01 -2.071223e-02 -1.244689e-01 -1.731982e-03 -3.183534e-02 -4.118864e-02 1.692087e-02 -8.350570e-02 -4.315907e-02 -8.478642e-02 -2.378843e-02 -4.496661e-02 6.210729e-03 -9.526586e-02 2.767834e-02 -4.859316e-03 -5.834553e-04
<VARIANCE> 39
 2.615955e+00 2.622905e+00 2.379514e+00 1.544785e+01 1.341496e+01 6.479251e+00 1.684106e+01 1.169695e+01 1.461705e+01 7.232095e+00 1.397760e+01 3.492509e+01 8.178990e-04 9.884679e-02 1.728635e-01 2.691176e-01 2.766925e-01 3.517723e-01 2.989182e-01 4.139301e-01 6.134276e-01 3.886367e-01 2.838008e-01 4.246996e-01 5.613600e-01 3.754082e-05 6.587126e-03 2.247920e-02 3.852635e-02 5.441981e-02 7.621006e-02 4.761807e-02 7.175034e-02 5.687827e-02 5.769843e-02 5.635517e-02 9.960058e-02 9.616294e-02 3.730629e-06
<GCONST> 1.759850e+01
<MIXTURE> 6 7.697711e-02
<MEAN> 39
 -9.219273e-01 1.341242e+01 -5.613927e+00 -3.274585e+00 -3.974916e+00 -9.097013e+00 -1.544039e-01 -1.280307e+00 -3.307192e+00 -3.596948e+00 -5.096225e+00 1.310395e+00 7.861016e-01 -1.536015e-03 2.699992e-02 -4.092826e-02 5.910530e-05 1.596107e-02 1.585045e-03 1.215944e-01 -3.902737e-02 9.938287e-02 -9.869868e-03 -1.584934e-02 -9.214981e-03 9.547494e-04 -1.467464e-03 -1.832370e-02 -1.579833e-02 -2.505099e-02 -2.549206e-02 -1.957525e-02 -3.530822e-02 -4.164378e-02 -1.454110e-02 2.915350e-02 -2.520115e-02 -3.699837e-02 -8.702304e-04
<VARIANCE> 39
 2.604813e+00 4.191230e+00 6.746652e+00 1.133568e+01 2.370192e+01 2.647165e+01 8.454312e+00 1.215445e+01 2.438979e+01 1.216942e+01 1.017161e+01 9.202950e+00 1.040610e-02 3.667488e-02 7.859102e-02 9.428379e-02 1.983740e-01 1.607851e-01 2.232104e-01 1.828330e-01 2.316303e-01 1.966057e-01 1.595600e-01 1.924244e-01 2.468351e-01 3.754082e-05 7.692999e-03 9.815348e-03 1.649835e-02 3.325890e-02 2.665179e-02 4.613772e-02 2.726827e-02 3.599251e-02 2.369818e-02 2.563181e-02 2.858369e-02 3.468219e-02 3.730629e-06
<GCONST> 4.680698e+00
<MIXTURE> 7 6.867301e-02
<MEAN> 39
 -1.447210e+00 1.710043e+01 1.495378e-01 -1.313085e+00 -5.383181e+00 -7.990326e+00 -9.650656e+00 2.420445e+00 -5.914683e+00 3.473722e+00 -1.209066e+00 5.878399e-02 8.361758e-01 7.986486e-03 6.623802e-02 -1.679026e-01 -9.322570e-02 1.521132e-01 -9.544038e-03 8.735443e-02 -2.716763e-01 1.279506e-01 -1.943854e-01 7.582625e-02 8.045445e-02 1.838194e-03 1.431885e-02 -2.591492e-02 -1.108670e-02 -2.654444e-02 1.587171e-02 -1.448143e-02 1.579365e-02 -7.510325e-03 4.242755e-02 -2.272085e-02 7.315803e-02 -7.864516e-02 -9.620932e-04
<VARIANCE> 39
 2.888390e+00 2.206289e+01 6.846326e+00 6.595490e+00 5.465132e+00 9.584087e+00 9.940930e+00 3.100700e+01 1.066827e+01 2.288512e+01 2.728773e+01 1.668591e+01 2.248277e-03 3.377777e-02 1.100569e-01 1.217327e-01 1.349534e-01 2.744130e-01 2.999826e-01 2.349325e-01 2.816447e-01 3.024566e-01 2.704623e-01 2.977770e-01 5.268677e-01 3.754082e-05 6.625343e-03 1.728928e-02 2.160496e-02 2.504427e-02 4.204897e-02 6.239270e-02 4.484269e-02 6.261862e-02 5.268945e-02 5.126569e-02 5.655057e-02 7.916848e-02 3.730629e-06
<GCONST> 1.315373e+01
<MIXTURE> 8 3.849749e-02
<MEAN> 39
 -4.991146e+00 1.062719e+01 -1.260646e+00 -9.359315e-01 -4.027902e+00 -2.357543e+00 -3.961903e-01 -5.752339e-01 1.500794e+00 5.996971e+00 8.199769e+00 1.396004e+01 9.279896e-01 2.256864e-02 -1.808401e-01 -1.140492e-01 -6.554239e-03 -3.913079e-03 -1.520690e-01 -5.354487e-02 -3.052845e-02 1.597532e-01 -2.994890e-02 1.975880e-01 4.339045e-02 3.465846e-03 -1.397327e-02 -5.929164e-02 -7.939545e-02 -1.041708e-01 -1.200482e-01 -1.398944e-01 -6.767836e-02 -6.366118e-02 -1.702281e-02 -6.153970e-02 -2.516709e-01 -2.041857e-01 -1.726344e-03
<VARIANCE> 39
 1.627501e+01 7.582890e+00 7.032372e+00 1.010255e+01 6.838704e+00 1.129718e+01 7.536188e+00 6.439546e+00 2.799904e+01 4.269987e+01 4.491791e+01 3.037225e+01 4.442741e-03 1.538086e-01 2.934755e-01 3.581256e-01 4.538074e-01 5.178527e-01 6.510890e-01 4.197794e-01 2.667502e-01 3.827929e-01 3.854750e-01 7.500678e-01 8.966516e-01 3.775741e-05 2.161668e-02 2.560347e-02 3.846926e-02 4.377492e-02 4.423999e-02 5.468950e-02 6.748523e-02 5.861576e-02 9.166587e-02 6.343995e-02 9.176305e-02 1.049735e-01 3.730629e-06
<GCONST> 2.945598e+01
<MIXTURE> 9 1.341196e-01
<MEAN> 39
 -6.569210e-01 1.285060e+01 -1.930832e+00 -1.556433e+00 -4.033467e+00 -4.799293e+00 -6.687676e+00 2.104761e+00 -6.672972e+00 3.355744e-01 -1.288847e+00 7.569497e-01 8.831956e-01 -5.389872e-04 2.230351e-01 6.053566e-02 4.249192e-01 2.156356e-01 6.567834e-05 3.155784e-02 -1.576718e-02 -5.400373e-02 -5.028902e-02 -2.733972e-01 3.377787e-01 1.367891e-02 9.176175e-02 -1.056432e-01 4.887791e-03 -7.484838e-02 -2.566937e-02 -1.541196e-02 8.900569e-02 3.518191e-02 2.461435e-01 5.007824e-02 1.217541e-01 -1.198731e-01 -4.828281e-03
<VARIANCE> 39
 7.558908e+00 3.686016e+01 6.755336e+00 9.568394e+00 1.489534e+01 2.231271e+01 2.411956e+01 2.119118e+01 2.195736e+01 2.049435e+01 2.587813e+01 2.068983e+01 4.120866e-03 1.902171e-01 3.787885e-01 4.175433e-01 4.158632e-01 5.727470e-01 4.526320e-01 6.874750e-01 7.873269e-01 8.557271e-01 7.857112e-01 1.026552e+00 7.096998e-01 7.284689e-05 5.654480e-02 5.652356e-02 7.049418e-02 6.890792e-02 1.201948e-01 8.959751e-02 1.488068e-01 1.450265e-01 1.119970e-01 1.422478e-01 1.471134e-01 1.293806e-01 1.117202e-05
<GCONST> 4.489030e+01
<MIXTURE> 10 7.645528e-02
<MEAN> 39
 -5.071792e+00 1.879167e+01 1.442593e+00 -2.547348e+00 -5.568085e+00 -6.116426e+00 -8.602779e+00 -1.838950e+00 1.247782e+00 -7.740416e+00 6.387928e+00 -3.061168e+00 9.162614e-01 1.973813e-02 8.005166e-02 -2.590935e-02 2.264811e-03 3.299818e-02 -3.213457e-02 3.213248e-02 6.010120e-02 -5.467715e-03 9.744629e-02 -4.539113e-02 6.833342e-02 6.539999e-04 1.706660e-02 -2.621962e-02 2.106291e-03 -1.330865e-02 -8.751186e-03 8.372247e-03 1.326814e-02 9.373334e-04 5.042267e-03 4.191569e-02 -1.129597e-02 3.873094e-02 -1.110528e-03
<VARIANCE> 39
 8.830158e+00 2.866787e+01 9.179631e+00 8.169381e+00 7.102813e+00 1.445933e+01 4.195652e+00 1.534094e+01 5.253431e+00 5.955015e+00 8.305280e+00 4.798323e+00 3.386352e-03 6.131861e-02 8.880486e-02 9.247874e-02 7.459110e-02 1.591626e-01 1.405128e-01 7.587400e-02 1.726629e-01 1.859561e-01 1.809585e-01 1.078539e-01 1.252976e-01 3.754082e-05 9.526443e-03 1.710546e-02 1.634795e-02 1.305065e-02 2.589567e-02 2.146187e-02 1.541701e-02 2.921782e-02 3.205161e-02 3.385253e-02 1.511368e-02 2.658687e-02 3.730629e-06
<GCONST> -3.965124e+00
<MIXTURE> 11 9.830533e-02
<MEAN> 39
 -7.511495e-01 1.665811e+01 -2.297201e-01 -1.848554e+00 -2.435114e+00 -3.804046e+00 -9.973577e+00 1.786423e+00 -1.692193e+00 -2.930923e+00 5.526731e+00 -4.010075e+00 8.223566e-01 -7.656247e-03 3.535265e-02 -3.883802e-02 -1.542095e-01 7.787149e-02 -6.424615e-02 7.551376e-02 -1.411561e-01 3.549773e-02 -2.621143e-02 1.636670e-02 5.436032e-02 1.210143e-03 2.470262e-02 -2.938026e-02 1.846324e-02 -4.322812e-02 8.561762e-03 -2.044998e-02 1.930370e-02 2.365314e-02 1.588476e-02 1.493245e-02 -1.072464e-02 2.515225e-02 -1.086306e-03
<VARIANCE> 39
 2.236012e+00 8.404321e+00 4.091280e+00 5.004910e+00 2.768927e+00 4.524313e+00 1.482393e+01 7.182445e+00 2.022868e+01 8.161819e+00 8.171190e+00 1.103794e+01 2.843344e-03 6.075696e-02 7.269733e-02 9.091093e-02 1.549882e-01 1.235566e-01 1.344806e-01 1.859082e-01 2.015844e-01 2.327029e-01 1.737431e-01 1.503770e-01 1.387806e-01 3.754082e-05 8.177686e-03 1.466703e-02 1.722126e-02 1.932219e-02 2.473246e-02 2.208211e-02 3.942079e-02 3.051481e-02 3.894692e-02 2.393121e-02 2.591807e-02 2.136172e-02 3.730629e-06
<GCONST> -4.010548e+00
<MIXTURE> 12 5.605630e-02
<MEAN> 39
 -2.489214e+00 9.326852e+00 -3.445562e+00 -9.170742e-01 -5.742533e+00 -6.031985e+00 -3.519412e+00 -1.325980e+00 -3.590559e+00 -1.078947e+00 -4.965658e+00 3.679389e+00 9.095417e-01 -3.027820e-01 -6.195514e-01 -5.582981e-01 -2.330698e-01 -6.217738e-01 -8.039222e-01 -1.248607e+00 -1.195722e+00 -7.273070e-01 -5.025420e-01 -3.950476e-01 -5.262626e-01 1.637155e-02 2.429318e-01 9.280291e-02 1.349827e-01 4.824296e-02 1.603249e-01 2.748913e-01 3.288574e-01 3.156469e-01 2.924993e-01 1.670843e-01 1.993634e-01 4.310989e-02 -6.640119e-03
<VARIANCE> 39
 1.183703e+01 3.726700e+01 1.064266e+01 1.608179e+01 1.320866e+01 2.168557e+01 1.396850e+01 1.718303e+01 1.738840e+01 2.207150e+01 1.926001e+01 2.083569e+01 3.056530e-03 2.925999e-01 1.704751e-01 3.786170e-01 5.213003e-01 7.615088e-01 7.618501e-01 6.106133e-01 6.992285e-01 7.021393e-01 6.110842e-01 7.055621e-01 1.080205e+00 8.988262e-05 4.733330e-02 5.197694e-02 4.899026e-02 8.679851e-02 1.114912e-01 9.962518e-02 9.413654e-02 1.340907e-01 1.771395e-01 1.107271e-01 1.448099e-01 1.113936e-01 1.934662e-05
<GCONST> 4.449887e+01
<STATE> 5
<NUMMIXES> 12
<MIXTURE> 1 5.682885e-02
<MEAN> 39
 -1.204544e+00 1.160212e+01 -7.856970e+00 -3.043597e+00 -6.109109e+00 -6.338575e+00 -1.160980e+00 -1.620837e+00 4.171555e+00 6.280053e+00 9.377752e+00 1.219479e+01 9.044348e-01 -2.564317e-02 2.282319e-01 2.683948e-01 2.712556e-01 -3.489889e-02 8.734749e-02 8.776589e-02 1.474503e-01 1.632235e-01 1.754202e-01 -7.850413e-02 3.817594e-01 9.820273e-03 9.306496e-02 -3.507442e-02 5.616048e-02 -5.605444e-02 5.772987e-02 7.281532e-02 8.086638e-02 1.218450e-01 -5.644590e-02 -1.408576e-01 -1.750629e-01 -2.153531e-01 -4.666856e-03
<VARIANCE> 39
 2.647726e+01 5.147446e+01 3.194041e+01 1.881170e+01 2.633296e+01 2.659587e+01 2.377934e+01 3.172501e+01 5.286146e+01 6.165323e+01 6.043066e+01 1.035242e+02 8.191415e-03 5.187817e-01 7.878041e-01 1.199059e+00 1.352965e+00 1.534837e+00 1.456360e+00 1.482152e+00 1.600046e+00 1.227573e+00 1.692261e+00 2.108546e+00 2.441143e+00 1.260671e-04 8.521213e-02 1.013295e-01 1.266114e-01 2.196141e-01 2.060593e-01 1.386452e-01 1.841154e-01 1.883716e-01 2.593246e-01 2.499162e-01 3.152532e-01 2.807999e-01 4.692064e-05
<GCONST> 7.476476e+01
<MIXTURE> 2 3.404856e-02
<MEAN> 39
 5.377524e-01 1.117695e+01 -5.629369e+00 -2.368706e+00 -1.203206e+01 -8.325361e+00 -3.381312e+00 -2.684902e+00 -4.726304e+00 -8.495539e+00 -8.178440e+00 -2.868392e-01 8.581041e-01 3.730680e-01 6.120257e-01 4.040612e-01 7.129784e-01 6.789398e-01 9.377795e-01 8.652711e-01 6.644636e-01 6.758594e-01 3.910595e-01 3.973899e-01 6.399110e-01 9.476349e-04 5.683972e-02 8.071171e-02 1.319830e-01 2.088856e-01 4.631395e-01 2.758304e-01 1.997743e-01 5.092834e-02 2.640406e-01 4.601497e-01 2.302217e-01 6.624060e-02 -6.298513e-04
<VARIANCE> 39
 1.526949e+01 1.880399e+01 2.444912e+01 2.715343e+01 1.250146e+01 2.465096e+01 1.995012e+01 3.133349e+01 2.943971e+01 2.597258e+01 2.657646e+01 3.498333e+01 5.174525e-03 2.015952e-01 5.637157e-01 4.918292e-01 5.313826e-01 7.210957e-01 1.031225e+00 6.439103e-01 1.478728e+00 9.209913e-01 1.418764e+00 1.011016e+00 1.010349e+00 3.754082e-05 4.680165e-02 6.824025e-02 1.409134e-01 1.319241e-01 1.333364e-01 1.441926e-01 1.205392e-01 3.248797e-01 2.014986e-01 2.437202e-01 2.769372e-01 1.825967e-01 3.730629e-06
<GCONST> 5.503056e+01
<MIXTURE> 3 4.005290e-02
<MEAN> 39
 -7.460175e-01 1.275526e+01 -6.161807e+00 -1.954478e+00 -8.417276e+00 -8.274853e+00 -4.877223e+00 -4.053245e+00 -3.509596e+00 -3.206800e+00 -5.937020e+00 7.966189e-01 8.782557e-01 2.656082e-01 4.562117e-01 4.342502e-01 5.018114e-01 6.927629e-01 7.595579e-01 7.435423e-01 6.299406e-01 6.719226e-01 6.157866e-01 5.876156e-01 3.242842e-01 -7.676436e-04 7.896695e-02 1.115117e-01 1.972761e-01 1.654468e-01 2.598678e-01 1.926564e-01 3.048482e-01 2.156768e-01 1.914665e-01 1.951383e-01 1.761278e-01 1.292427e-01 -1.096098e-03
<VARIANCE> 39
 1.492584e+01 2.054739e+01 1.201653e+01 1.130515e+01 1.333427e+01 1.905032e+01 1.818815e+01 2.593893e+01 1.692575e+01 2.953127e+01 2.136082e+01 2.984389e+01 7.222227e-03 6.342507e-02 1.593069e-01 2.111172e-01 3.446044e-01 3.493509e-01 3.869280e-01 4.277837e-01 3.451436e-01 4.633854e-01 4.297118e-01 3.523893e-01 3.521565e-01 3.754082e-05 1.068901e-02 2.638813e-02 3.438953e-02 4.599311e-02 6.572781e-02 7.805350e-02 7.673751e-02 8.654287e-02 8.320217e-02 7.221000e-02 6.752211e-02 9.308434e-02 3.730629e-06
<GCONST> 2.913662e+01
<MIXTURE> 4 9.246314e-02
<MEAN> 39
 -1.958230e+00 1.274472e+01 5.462261e-01 -7.844169e-01 -6.628490e+00 -2.197372e+00 -9.222233e+00 1.344844e-01 -9.786959e-01 -5.642832e+00 1.804923e+00 -2.937130e+00 8.976505e-01 8.486260e-02 1.004101e-02 1.434367e-02 -6.307627e-02 2.264673e-01 1.079605e-02 8.005591e-02 -4.001996e-02 3.870555e-01 1.287705e-01 2.379025e-01 -2.121447e-01 5.959516e-03 2.923255e-02 -7.306641e-02 2.130799e-02 -8.214689e-02 1.108423e-01 -1.189514e-01 4.855802e-02 -4.421979e-02 6.480626e-02 1.342081e-01 -4.665391e-02 -3.091354e-02 -2.189617e-03
<VARIANCE> 39
 8.598982e+00 3.587527e+01 1.604829e+01 1.954281e+01 1.786581e+01 2.964441e+01 3.405785e+01 3.229371e+01 4.253112e+01 3.345787e+01 2.471949e+01 2.402309e+01 3.903134e-03 2.315201e-01 4.410876e-01 6.988780e-01 7.445969e-01 1.112595e+00 1.072502e+00 1.241823e+00 1.476239e+00 1.302972e+00 9.222677e-01 8.868307e-01 8.145483e-01 4.441947e-05 3.033034e-02 6.104654e-02 1.225930e-01 1.230440e-01 1.928651e-01 2.066745e-01 2.118786e-01 2.581912e-01 2.753973e-01 1.692842e-01 1.634423e-01 1.224913e-01 7.958128e-06
<GCONST> 5.688596e+01
<MIXTURE> 5 1.266117e-01
<MEAN> 39
 4.583334e-01 1.457690e+01 -3.183232e+00 8.626789e-01 -5.650290e+00 -5.188162e+00 -1.366739e+00 -8.286519e-01 -1.278041e+00 -8.125015e-01 -4.143345e+00 2.913045e+00 8.699391e-01 3.370618e-01 4.708132e-01 4.035160e-01 6.709486e-01 6.521338e-01 4.968356e-01 7.203780e-01 5.354515e-01 6.588647e-01 7.333483e-01 5.846236e-01 4.659446e-01 3.105417e-03 -1.170988e-01 -2.466962e-01 -2.636720e-01 -3.332455e-01 -2.547346e-01 -3.102459e-01 -2.287270e-01 -3.239301e-01 -3.057297e-01 -2.156755e-01 -1.789659e-01 -2.078726e-01 -1.300701e-03
<VARIANCE> 39
 1.481535e+01 2.752660e+01 1.149262e+01 1.268137e+01 1.211054e+01 2.108389e+01 1.363266e+01 2.593071e+01 1.919020e+01 2.112766e+01 2.293306e+01 2.947180e+01 7.566436e-03 1.231860e-01 2.644890e-01 3.789560e-01 4.072067e-01 5.918799e-01 7.734407e-01 7.489272e-01 7.686681e-01 6.562411e-01 6.680758e-01 5.781570e-01 8.685913e-01 5.921181e-05 2.499943e-02 4.372769e-02 6.201098e-02 9.078477e-02 8.991205e-02 1.389321e-01 1.365132e-01 1.126449e-01 1.210334e-01 1.567173e-01 1.390198e-01 1.441463e-01 5.419152e-06
<GCONST> 4.328660e+01
<MIXTURE> 6 9.901639e-02
<MEAN> 39
 -9.522673e-02 1.317862e+01 -5.154717e+00 -8.453191e-01 -7.082467e+00 -8.152024e+00 -3.376446e+00 -3.063653e+00 -3.326947e+00 -3.237407e+00 -6.343490e+00 1.264089e+00 8.753433e-01 -1.963331e-01 -4.335825e-01 -7.097855e-01 -5.704065e-01 -6.957859e-01 -7.579416e-01 -6.517445e-01 -7.330120e-01 -6.308944e-01 -5.798746e-01 -4.255774e-01 -4.748579e-01 5.280345e-04 -3.987272e-03 1.827285e-02 3.087545e-02 -3.209693e-02 2.124235e-02 4.943683e-02 2.946743e-02 7.712193e-02 6.092513e-02 -1.675202e-02 4.761389e-02 2.383688e-02 -1.242407e-03
<VARIANCE> 39
 1.526129e+01 2.358069e+01 1.244218e+01 1.328499e+01 1.720933e+01 2.207517e+01 1.933783e+01 2.459989e+01 2.059252e+01 2.912825e+01 1.679602e+01 2.986820e+01 5.973021e-03 8.978632e-02 1.772905e-01 2.700476e-01 3.839101e-01 3.307479e-01 4.282557e-01 5.682799e-01 3.725368e-01 5.050365e-01 4.797384e-01 5.248580e-01 4.786992e-01 3.754082e-05 1.246660e-02 3.164351e-02 3.690082e-02 3.889721e-02 5.542934e-02 7.778482e-02 8.841635e-02 7.967802e-02 7.903896e-02 8.012058e-02 6.154252e-02 8.573568e-02 3.730629e-06
<GCONST> 3.177497e+01
<MIXTURE> 7 1.860235e-01
<MEAN> 39
 -1.712366e-01 1.276133e+01 -3.780525e+00 2.886000e-01 -5.034733e+00 -7.026049e+00 -3.840284e+00 -2.353323e+00 -3.501321e+00 -1.334959e+00 -4.831097e+00 3.300066e+00 9.000252e-01 5.793387e-02 4.062637e-02 4.388003e-02 1.228429e-01 1.260719e-01 2.836424e-02 5.792868e-02 4.848342e-02 2.326487e-01 6.694310e-02 -1.461268e-02 -5.648844e-02 1.393005e-04 -5.069973e-02 -3.970886e-02 -4.511399e-02 -8.201229e-02 -4.599929e-02 -7.819673e-02 -2.326263e-02 -1.714206e-02 1.038435e-02 -2.122897e-02 -2.223776e-04 -1.028209e-01 -1.437868e-03
<VARIANCE> 39
 1.346780e+01 1.764393e+01 1.105527e+01 1.375132e+01 1.483907e+01 1.840893e+01 1.985782e+01 2.687919e+01 1.872952e+01 2.225424e+01 3.468394e+01 3.827322e+01 3.968495e-03 7.238649e-02 1.263327e-01 1.734764e-01 2.921562e-01 2.944283e-01 3.790889e-01 3.629082e-01 4.417824e-01 3.427913e-01 3.985074e-01 3.523414e-01 3.842508e-01 3.754082e-05 1.343964e-02 2.251257e-02 3.731900e-02 4.537183e-02 5.879437e-02 5.639394e-02 7.507993e-02 7.948445e-02 8.560616e-02 7.989106e-02 7.678156e-02 7.194130e-02 3.730629e-06
<GCONST> 2.787837e+01
<MIXTURE> 8 8.818576e-02
<MEAN> 39
 7.235616e-02 1.426845e+01 -3.449466e+00 8.835019e-01 -5.175471e+00 -4.718995e+00 -9.937313e-01 -4.030485e-01 -1.049412e+00 -5.473753e-01 -3.716109e+00 2.955484e+00 8.680972e-01 -1.399181e-01 -2.797397e-01 -4.367208e-01 -4.112321e-01 -3.804038e-01 -5.162794e-01 -2.845912e-01 -4.709312e-01 -4.148189e-01 -3.339371e-01 -4.212733e-01 -3.550364e-01 1.575712e-03 -1.605662e-01 -2.447285e-01 -2.996764e-01 -4.132880e-01 -3.516461e-01 -3.806740e-01 -3.207161e-01 -3.586326e-01 -2.845303e-01 -3.215941e-01 -2.657962e-01 -2.741045e-01 -1.292682e-03
<VARIANCE> 39
 1.426633e+01 2.751543e+01 1.042643e+01 1.326788e+01 1.239524e+01 1.996896e+01 1.435755e+01 2.030196e+01 2.008792e+01 2.060205e+01 2.634037e+01 3.137027e+01 8.427813e-03 9.331486e-02 1.853161e-01 2.504459e-01 3.116819e-01 4.124362e-01 3.887517e-01 4.379563e-01 4.501935e-01 4.255033e-01 6.001571e-01 4.523053e-01 4.441223e-01 3.754082e-05 1.787992e-02 4.567749e-02 4.983244e-02 4.611186e-02 6.503390e-02 9.353495e-02 1.007213e-01 9.306104e-02 8.170356e-02 7.328074e-02 7.870529e-02 9.708246e-02 5.976922e-06
<GCONST> 3.353204e+01
<MIXTURE> 9 4.005290e-02
<MEAN> 39
 -7.460175e-01 1.275526e+01 -6.161807e+00 -1.954478e+00 -8.417276e+00 -8.274853e+00 -4.877223e+00 -4.053245e+00 -3.509596e+00 -3.206800e+00 -5.937020e+00 7.966189e-01 8.782557e-01 2.656082e-01 4.562117e-01 4.342502e-01 5.018114e-01 6.927629e-01 7.595579e-01 7.435423e-01 6.299406e-01 6.719226e-01 6.157866e-01 5.876156e-01 3.242842e-01 -7.676436e-04 7.896695e-02 1.115117e-01 1.972761e-01 1.654468e-01 2.598678e-01 1.926564e-01 3.048482e-01 2.156768e-01 1.914665e-01 1.951383e-01 1.761278e-01 1.292427e-01 -1.096098e-03
<VARIANCE> 39
 1.492584e+01 2.054739e+01 1.201653e+01 1.130515e+01 1.333427e+01 1.905032e+01 1.818815e+01 2.593893e+01 1.692575e+01 2.953127e+01 2.136082e+01 2.984389e+01 7.222227e-03 6.342507e-02 1.593069e-01 2.111172e-01 3.446044e-01 3.493509e-01 3.869280e-01 4.277837e-01 3.451436e-01 4.633854e-01 4.297118e-01 3.523893e-01 3.521565e-01 3.754082e-05 1.068901e-02 2.638813e-02 3.438953e-02 4.599311e-02 6.572781e-02 7.805350e-02 7.673751e-02 8.654287e-02 8.320217e-02 7.221000e-02 6.752211e-02 9.308434e-02 3.730629e-06
<GCONST> 2.913662e+01
<MIXTURE> 10 5.779590e-02
<MEAN> 39
 -5.468565e-01 1.961570e+01 1.770011e+00 1.706009e-01 -9.962708e+00 7.137501e-02 -1.512636e+01 3.043546e+00 2.003593e-01 -5.860171e+00 6.233437e+00 -5.353820e+00 8.350744e-01 8.196107e-02 8.205884e-02 -1.760766e-02 1.702464e-01 2.384042e-01 2.716845e-02 -1.277495e-02 1.379771e-01 1.320736e-01 5.256333e-02 1.097998e-01 -1.264877e-01 -8.071973e-04 3.060021e-03 -7.005157e-02 3.604411e-02 -1.077084e-01 8.536503e-02 -1.403701e-01 1.343664e-01 -7.982652e-02 3.980023e-02 -2.243267e-02 2.770530e-02 1.198062e-01 -7.475675e-04
<VARIANCE> 39
 1.226804e+01 1.382786e+01 8.170296e+00 7.671163e+00 2.235541e+01 1.391707e+01 1.541730e+01 1.888974e+01 1.510421e+01 1.805245e+01 5.684094e+00 1.336247e+01 2.671462e-03 8.567390e-02 1.198223e-01 2.847868e-01 2.438723e-01 2.475042e-01 5.491811e-01 6.936686e-01 6.249342e-01 8.364834e-01 7.243980e-01 5.280129e-01 4.278454e-01 3.754082e-05 1.016923e-02 1.841237e-02 3.521909e-02 3.685867e-02 6.130253e-02 9.037310e-02 1.327499e-01 1.162853e-01 1.849841e-01 1.291117e-01 9.476315e-02 7.721183e-02 3.730629e-06
<GCONST> 2.837238e+01
<MIXTURE> 11 8.156920e-02
<MEAN> 39
 -3.010608e+00 1.573660e+01 8.304576e-01 -3.446463e+00 -5.964316e+00 -3.615255e+00 -1.040758e+01 -1.450660e+00 -2.049721e-01 -8.185316e+00 5.212966e+00 -4.651052e+00 8.708423e-01 -1.126836e-01 2.823280e-02 3.217266e-02 -1.387292e-01 1.010752e-01 -1.564614e-01 6.275758e-02 1.018920e-01 -6.358209e-02 5.729173e-02 -3.895443e-02 -1.211694e-01 1.451007e-03 1.628664e-02 -5.379536e-02 2.530616e-02 -1.401886e-02 -6.797990e-03 -5.068672e-02 2.446557e-02 2.284622e-02 2.080601e-02 7.250565e-02 -2.999599e-02 3.697430e-02 -1.321173e-03
<VARIANCE> 39
 7.550715e+00 2.951785e+01 1.047637e+01 8.518613e+00 1.833420e+01 1.723755e+01 1.529403e+01 2.026680e+01 2.407337e+01 2.810743e+01 1.717945e+01 1.367351e+01 5.252015e-03 7.504020e-02 1.199213e-01 1.337676e-01 1.799094e-01 1.732928e-01 2.315690e-01 2.935612e-01 3.023653e-01 3.421144e-01 3.095779e-01 2.395528e-01 2.451409e-01 3.754082e-05 1.990142e-02 3.251138e-02 3.059810e-02 3.199038e-02 3.951838e-02 4.194538e-02 4.164536e-02 5.251299e-02 6.217571e-02 4.793213e-02 5.708486e-02 5.246153e-02 3.730629e-06
<GCONST> 1.952405e+01
<MIXTURE> 12 9.734709e-02
<MEAN> 39
 -1.772846e+00 1.137025e+01 -6.557812e+00 -3.030022e+00 -9.692599e+00 -9.756264e+00 -6.106246e+00 -4.324349e+00 -5.351220e+00 -4.488634e+00 -6.572194e+00 1.451949e+00 8.839516e-01 -1.082508e-01 -1.486030e-01 -3.341506e-01 -2.651621e-01 -3.187168e-01 -2.887930e-01 -2.665900e-01 -2.341721e-01 -2.148199e-01 -3.223493e-01 -1.116167e-01 -2.605423e-01 1.570908e-03 1.564191e-01 2.474993e-01 3.275436e-01 3.023217e-01 4.142125e-01 4.548451e-01 4.659978e-01 4.154844e-01 3.970492e-01 3.064753e-01 2.663526e-01 1.931482e-01 -1.639290e-03
<VARIANCE> 39
 1.710100e+01 2.168477e+01 1.622385e+01 1.166390e+01 1.396723e+01 2.404522e+01 2.230206e+01 2.156509e+01 1.775837e+01 2.490808e+01 2.560866e+01 3.860674e+01 5.843914e-03 1.096705e-01 1.667380e-01 2.343704e-01 3.276313e-01 4.100821e-01 4.119063e-01 4.957430e-01 4.832976e-01 3.721460e-01 4.418286e-01 5.632324e-01 5.318032e-01 3.754082e-05 1.735239e-02 3.810383e-02 4.696546e-02 6.952868e-02 6.872235e-02 7.941306e-02 8.833761e-02 7.953003e-02 1.007457e-01 9.255279e-02 8.212829e-02 9.331005e-02 4.525976e-06
<GCONST> 3.463103e+01
<STATE> 6
<NUMMIXES> 12
<MIXTURE> 1 3.140620e-02
<MEAN> 39
 -2.243018e+00 -1.816802e-02 -4.005991e+00 -3.189128e+00 -4.437872e+00 -4.075566e+00 -3.563623e+00 -4.499927e+00 -3.293079e+00 -3.336179e+00 -3.560907e+00 4.007620e-01 9.618696e-01 4.448216e-01 6.392596e-01 6.930443e-01 6.720579e-01 7.407171e-01 5.056633e-01 1.019547e+00 9.774690e-01 6.132095e-01 5.594303e-01 3.610498e-01 3.663865e-01 -4.511122e-03 1.789425e-01 2.485820e-01 3.693371e-01 3.089913e-01 3.252938e-01 3.142427e-01 3.121371e-01 3.368344e-01 3.246303e-01 3.423156e-01 2.589823e-01 4.268706e-02 -1.168959e-03
<VARIANCE> 39
 5.873573e+00 4.862607e+00 7.318238e+00 7.041229e+00 1.653548e+01 9.379745e+00 9.212742e+00 1.060365e+01 2.035387e+01 1.513021e+01 2.695231e+01 1.663023e+01 1.327945e-03 1.448405e-01 1.978436e-01 4.407434e-01 4.432470e-01 1.128529e+00 6.583086e-01 4.759204e-01 8.605198e-01 6.483635e-01 5.496297e-01 6.169326e-01 7.958221e-01 3.754082e-05 2.021733e-02 5.666816e-02 8.372492e-02 5.642568e-02 1.423647e-01 7.493139e-02 1.046035e-01 1.708912e-01 1.546348e-01 1.250461e-01 1.358136e-01 1.248770e-01 3.730629e-06
<GCONST> 3.428664e+01
<MIXTURE> 2 6.981265e-02
<MEAN> 39
 -1.395494e+00 6.645998e-01 -2.180213e+00 -1.331997e+00 -1.235832e+00 -1.067413e+00 -1.444514e+00 -1.970861e+00 -1.786135e+00 -1.639689e+00 -1.810202e+00 -3.096751e-01 9.705172e-01 -2.287580e-01 -5.810458e-01 -7.091782e-01 -7.568801e-01 -8.794209e-01 -8.131489e-01 -7.557802e-01 -8.737888e-01 -8.194969e-01 -8.632682e-01 -6.508222e-01 -6.129276e-01 -9.646083e-04 1.737178e-02 2.937565e-02 8.447353e-02 4.483514e-02 2.895051e-02 -7.579837e-02 4.117459e-02 1.278062e-01 -3.513710e-02 1.368255e-02 -1.260025e-02 -8.868089e-03 -7.854862e-04
<VARIANCE> 39
 3.240882e+00 2.658863e+00 6.182799e+00 6.758873e+00 7.197981e+00 6.270466e+00 9.329343e+00 8.390920e+00 1.096812e+01 9.965549e+00 1.545437e+01 1.134393e+01 8.178990e-04 1.670465e-01 2.086656e-01 2.353970e-01 3.066980e-01 4.658497e-01 4.512435e-01 5.762678e-01 7.813724e-01 5.042296e-01 5.069366e-01 1.140902e+00 6.912746e-01 3.754082e-05 1.359073e-02 3.222267e-02 6.384822e-02 5.663200e-02 8.964151e-02 7.301317e-02 8.976915e-02 1.724172e-01 9.404206e-02 7.009095e-02 1.359893e-01 8.361912e-02 3.730629e-06
<GCONST> 2.380063e+01
<MIXTURE> 3 8.013149e-02
<MEAN> 39
 -1.684854e+00 1.443604e-01 -2.153912e+00 -1.945800e+00 -2.164108e+00 -2.660858e+00 -2.666441e+00 -2.560141e+00 -2.360656e+00 -2.678657e+00 -2.054510e+00 -1.664161e+00 9.675356e-01 2.414558e-01 2.314049e-01 3.212584e-01 3.695408e-01 3.736522e-01 2.724629e-01 2.752076e-01 3.604036e-01 4.343438e-01 2.758578e-01 1.758847e-01 2.002894e-01 -1.741593e-03 3.476535e-02 9.701296e-02 6.672870e-02 4.368983e-02 3.596581e-02 1.102674e-01 1.175841e-01 1.243330e-01 1.203230e-01 9.901289e-02 4.629467e-02 1.068973e-01 -8.399623e-04
<VARIANCE> 39
 2.785191e+00 2.436803e+00 6.654685e+00 6.598698e+00 7.372166e+00 4.325833e+00 9.075996e+00 6.825403e+00 5.566029e+00 7.603648e+00 1.340275e+01 1.145368e+01 9.131685e-04 8.074952e-02 1.256826e-01 2.606690e-01 3.094541e-01 5.047849e-01 4.183946e-01 5.581761e-01 6.049575e-01 3.530140e-01 4.138426e-01 4.738923e-01 3.608957e-01 3.754082e-05 1.043005e-02 1.641870e-02 3.424200e-02 3.384521e-02 7.986694e-02 6.629574e-02 8.814132e-02 6.314526e-02 6.804062e-02 7.873311e-02 6.029212e-02 7.262656e-02 3.730629e-06
<GCONST> 1.409142e+01
<MIXTURE> 4 8.352375e-02
<MEAN> 39
 -2.552625e+00 1.660115e+01 8.850116e-01 -3.668514e+00 -8.073553e+00 -5.003864e+00 -1.182632e+01 1.633372e+00 -1.761253e+00 -4.388546e+00 3.816200e+00 -6.210201e+00 8.774844e-01 -9.766672e-02 -5.426271e-02 1.893056e-01 -2.663251e-01 2.367727e-01 -1.188569e-01 1.621132e-01 -3.393825e-01 4.383242e-01 -3.813824e-02 2.646118e-01 -8.159746e-02 2.491431e-03 -2.953698e-03 -1.320914e-01 3.394120e-02 -1.517621e-01 2.474546e-01 -4.929027e-02 4.892498e-02 -1.672752e-01 6.335682e-02 3.402740e-02 4.490912e-02 8.711182e-02 -1.715163e-03
<VARIANCE> 39
 6.424569e+00 2.553680e+01 1.271255e+01 1.943800e+01 1.372851e+01 2.743305e+01 2.323210e+01 1.765146e+01 2.573426e+01 2.464603e+01 2.214537e+01 9.699094e+00 4.213227e-03 1.101650e-01 2.665015e-01 3.707274e-01 5.908553e-01 3.526726e-01 5.330377e-01 7.554063e-01 6.303067e-01 7.430717e-01 5.530626e-01 6.515313e-01 6.244242e-01 3.919491e-05 2.796614e-02 4.674806e-02 6.375202e-02 8.806311e-02 7.204440e-02 1.316958e-01 9.766889e-02 8.902268e-02 1.712035e-01 9.424666e-02 1.082481e-01 1.053112e-01 7.593854e-06
<GCONST> 3.957777e+01
<MIXTURE> 5 1.329903e-01
<MEAN> 39
 -2.347565e-01 2.224676e+00 -2.056874e-01 4.188150e-01 7.676532e-01 -2.093377e-01 3.070755e-02 -5.103093e-01 -3.302072e-01 -3.302791e-02 -4.758797e-01 6.162809e-01 9.694630e-01 1.869733e-01 1.257932e-02 7.049978e-02 1.414945e-01 1.728295e-01 3.727432e-02 1.359068e-02 -5.598278e-02 3.389335e-01 2.416797e-01 1.195628e-01 8.727429e-02 -2.617839e-03 -8.317947e-02 -1.883358e-01 -2.498246e-01 -2.274804e-01 -3.372689e-01 -2.417318e-01 -2.678162e-01 -2.347006e-01 -1.669577e-01 -1.657701e-01 -1.363378e-01 -1.725610e-01 -9.640045e-04
<VARIANCE> 39
 3.615401e+00 3.711961e+00 7.601446e+00 8.131577e+00 7.678790e+00 1.154947e+01 9.249763e+00 9.274090e+00 1.065231e+01 1.008215e+01 1.707913e+01 8.939369e+00 8.178990e-04 1.984253e-01 5.096971e-01 7.628521e-01 7.985196e-01 9.589056e-01 9.862822e-01 1.365594e+00 1.279668e+00 1.040148e+00 8.781502e-01 1.275909e+00 6.683656e-01 3.754082e-05 2.782069e-02 7.600065e-02 1.017752e-01 1.207674e-01 1.422658e-01 1.578309e-01 1.483983e-01 2.068101e-01 1.499098e-01 1.391081e-01 1.974544e-01 9.385223e-02 3.730629e-06
<GCONST> 3.901122e+01
<MIXTURE> 6 5.620011e-02
<MEAN> 39
 -1.107780e+00 1.261301e+01 -3.124292e+00 -4.790988e-01 -6.201473e+00 -5.080713e+00 -1.571381e+00 3.421726e-01 2.953809e+00 2.576717e+00 3.274639e+00 5.395670e+00 8.924109e-01 2.758731e-02 1.994141e-01 2.274210e-01 1.731559e-01 1.374210e-01 3.262394e-01 4.632377e-01 1.510744e-01 1.260512e-01 3.548868e-01 3.575896e-01 -1.575320e-02 5.856503e-03 -5.727481e-02 -2.637372e-01 -2.343753e-01 -4.012357e-01 5.396172e-03 -2.068433e-01 -2.689962e-01 -2.822604e-01 -1.926343e-01 -1.998017e-01 -1.057290e-01 -3.100891e-01 -3.294546e-03
<VARIANCE> 39
 2.076546e+01 3.124060e+01 2.343201e+01 2.437736e+01 2.104595e+01 2.602194e+01 3.608730e+01 3.846538e+01 6.160593e+01 7.322282e+01 8.103462e+01 1.224635e+02 1.018268e-02 5.162631e-01 7.086636e-01 8.430596e-01 1.158334e+00 2.025446e+00 1.471041e+00 1.263639e+00 1.335345e+00 1.586413e+00 1.724688e+00 2.078709e+00 2.164802e+00 9.548652e-05 1.102712e-01 1.394530e-01 2.698990e-01 1.969179e-01 3.139026e-01 3.810192e-01 3.786199e-01 3.808881e-01 3.352238e-01 4.501225e-01 4.392081e-01 4.025995e-01 2.432667e-05
<GCONST> 7.949370e+01
<MIXTURE> 7 1.661725e-01
<MEAN> 39
 5.652281e-01 1.314409e+01 -6.245982e+00 1.576832e-01 -5.615308e+00 -5.397558e+00 -2.566315e+00 -3.459584e+00 -2.148667e+00 -7.704109e-01 -1.389777e+00 5.358602e+00 8.957979e-01 8.095176e-02 2.898056e-02 1.110361e-01 1.596858e-01 3.113131e-01 9.812029e-02 1.879638e-01 9.156716e-02 3.644510e-01 2.394574e-01 1.549304e-01 -1.439387e-01 -1.636473e-03 -3.434405e-02 -7.501268e-02 7.810134e-02 -1.529931e-01 6.865893e-02 -1.131790e-01 4.807722e-02 2.774100e-02 2.825253e-02 1.652330e-02 2.231071e-03 -1.194073e-01 -1.359451e-03
<VARIANCE> 39
 1.281410e+01 3.506338e+01 1.582563e+01 1.422942e+01 1.912312e+01 2.869569e+01 2.021170e+01 2.137626e+01 1.982848e+01 2.687790e+01 4.792490e+01 5.483925e+01 4.772346e-03 1.761623e-01 2.484400e-01 4.323592e-01 5.615108e-01 6.596702e-01 9.916394e-01 8.705673e-01 6.411536e-01 7.213152e-01 8.622641e-01 9.160962e-01 9.655396e-01 3.754082e-05 3.240368e-02 5.521642e-02 7.580021e-02 1.100968e-01 1.333672e-01 1.689484e-01 1.805020e-01 1.194809e-01 1.586846e-01 1.704115e-01 1.363744e-01 1.513653e-01 4.156112e-06
<GCONST> 4.942276e+01
<MIXTURE> 8 4.714634e-02
<MEAN> 39
 2.504680e-03 1.452165e+01 -3.817194e+00 9.092486e-03 -6.461851e+00 -8.829325e+00 -3.370799e+00 -4.910734e-01 -4.553335e+00 3.999166e-01 -6.593131e+00 1.847350e+00 8.976584e-01 -5.486050e-01 -6.315914e-01 -7.568593e-01 -1.070019e+00 -7.889208e-01 -1.126226e+00 -5.179559e-01 -9.373282e-01 -5.289981e-01 -7.604935e-01 -7.088864e-01 -1.033361e+00 2.742225e-04 -8.824701e-02 -1.400823e-01 -1.088174e-01 -3.307703e-01 -2.848786e-02 -1.729385e-01 -2.828749e-02 -2.479291e-01 -2.273169e-02 -2.689794e-01 4.629694e-02 -1.859246e-01 -2.033532e-03
<VARIANCE> 39
 9.260849e+00 1.631805e+01 8.151997e+00 1.522006e+01 1.047252e+01 9.749861e+00 2.325815e+01 2.771468e+01 2.678487e+01 1.534768e+01 2.117917e+01 2.271402e+01 3.918057e-03 1.371077e-01 2.142738e-01 2.373949e-01 4.616726e-01 4.557579e-01 5.051813e-01 4.463524e-01 7.377794e-01 6.178971e-01 8.766413e-01 9.418365e-01 1.091133e+00 5.446993e-05 3.267803e-02 3.975559e-02 5.846021e-02 6.379351e-02 6.856509e-02 1.194736e-01 1.290919e-01 8.141938e-02 1.463878e-01 1.625457e-01 1.021046e-01 1.492118e-01 5.893309e-06
<GCONST> 3.898023e+01
<MIXTURE> 9 5.344855e-02
<MEAN> 39
 -2.245075e+00 -9.834591e-01 -4.044491e+00 -3.534073e+00 -4.269577e+00 -4.107429e+00 -4.206468e+00 -4.676908e+00 -3.432102e+00 -3.737370e+00 -3.206116e+00 -2.412997e+00 9.722731e-01 2.459666e-02 -2.427605e-01 -2.772969e-01 -1.055054e-01 -1.097169e-01 -2.922380e-01 -2.870960e-01 -2.750722e-01 -3.085349e-01 -2.265850e-01 -1.019988e-01 -2.209925e-01 -2.143232e-03 1.560673e-01 3.272493e-01 3.705402e-01 3.269798e-01 4.719833e-01 3.781186e-01 4.160771e-01 4.715656e-01 3.476942e-01 3.651180e-01 2.550086e-01 3.073491e-01 -6.227242e-04
<VARIANCE> 39
 3.491979e+00 2.570294e+00 5.901133e+00 7.876311e+00 1.209367e+01 5.871816e+00 7.921001e+00 6.985984e+00 9.136175e+00 7.828057e+00 1.677893e+01 9.778575e+00 8.178990e-04 9.695605e-02 2.198178e-01 3.013463e-01 2.224075e-01 5.852520e-01 5.407044e-01 4.362984e-01 3.951384e-01 5.331926e-01 4.297854e-01 8.366366e-01 3.907216e-01 3.754082e-05 2.536668e-02 4.642964e-02 6.584343e-02 7.070129e-02 1.122058e-01 6.485506e-02 1.043545e-01 1.077970e-01 1.151779e-01 7.816644e-02 1.657199e-01 8.046343e-02 3.730629e-06
<GCONST> 2.295628e+01
<MIXTURE> 10 8.415376e-02
<MEAN> 39
 -1.571236e+00 1.594301e+01 1.315883e+00 -1.901866e+00 -2.048132e+00 -5.227162e+00 -8.361795e+00 -3.098426e+00 -7.339532e-01 -2.463016e+00 5.281825e+00 -2.247555e+00 8.762456e-01 1.634112e-01 -5.711392e-02 3.912503e-02 -1.096544e-01 -2.922007e-02 1.811093e-03 4.884164e-03 8.086263e-02 2.665461e-02 1.636724e-01 -5.717153e-02 4.446374e-02 -3.375975e-03 4.452488e-02 -8.443295e-02 1.531649e-02 1.633624e-02 -6.710695e-02 -4.503351e-02 3.644152e-02 1.054750e-01 6.253504e-03 2.793786e-02 -4.398023e-02 7.547758e-03 -1.990371e-03
<VARIANCE> 39
 6.003224e+00 4.005111e+01 1.773265e+01 1.196979e+01 1.271658e+01 2.161141e+01 1.627090e+01 1.619938e+01 1.754386e+01 1.701155e+01 1.029735e+01 7.161920e+00 3.182677e-03 1.184009e-01 1.914951e-01 3.074926e-01 3.333135e-01 4.763677e-01 3.684672e-01 2.796342e-01 3.494209e-01 2.466021e-01 4.509828e-01 3.778879e-01 3.290046e-01 3.754082e-05 2.035486e-02 4.329839e-02 5.854514e-02 9.283286e-02 7.223499e-02 6.371534e-02 4.093729e-02 5.338898e-02 7.646699e-02 6.461541e-02 7.533687e-02 5.810029e-02 3.730629e-06
<GCONST> 2.635915e+01
<MIXTURE> 11 5.706568e-02
<MEAN> 39
 1.027213e+00 1.646196e+01 -7.981259e-02 -7.623166e-01 -3.459169e+00 -2.534793e+00 -8.906296e+00 1.422159e+00 -1.866822e-01 -5.461137e+00 7.033767e+00 -4.971254e+00 8.216664e-01 2.705613e-01 -8.156392e-02 -4.237739e-02 9.475955e-02 2.940475e-01 -4.691627e-01 1.910188e-01 3.486879e-02 1.169188e-01 1.934268e-01 6.678258e-04 4.065553e-01 -2.582564e-03 -7.496271e-02 4.824042e-02 -5.429111e-02 -1.825066e-02 3.655425e-03 -1.834114e-01 -7.134715e-02 -6.869293e-02 1.691384e-01 9.737397e-02 -1.385637e-01 1.221217e-01 -1.463027e-04
<VARIANCE> 39
 5.156526e+00 2.207287e+01 1.300760e+01 1.214682e+01 1.052696e+01 1.056135e+01 1.909110e+01 7.882434e+00 1.351060e+01 1.780493e+01 1.364686e+01 1.274231e+01 5.122620e-03 5.194141e-01 7.245924e-01 3.647586e-01 5.179135e-01 3.966589e-01 6.495573e-01 1.113236e+00 5.870554e-01 5.680631e-01 6.557942e-01 5.005914e-01 4.953161e-01 6.632510e-05 9.081676e-02 1.032661e-01 6.230549e-02 1.117532e-01 9.237197e-02 2.024199e-01 1.694593e-01 1.188190e-01 1.032782e-01 1.172934e-01 1.160112e-01 8.359700e-02 6.682296e-06
<GCONST> 4.165224e+01
<MIXTURE> 12 1.379474e-01
<MEAN> 39
 -1.112332e+00 2.411322e+00 -5.161996e-01 3.599152e-01 -4.196045e-01 1.723151e-02 -5.504705e-01 -1.446570e-01 -2.923741e-01 -4.780405e-01 -4.651987e-01 6.419949e-01 9.693433e-01 9.605043e-02 1.183822e-02 5.457000e-02 1.300197e-02 -1.121882e-02 3.615353e-02 8.764138e-02 4.728131e-03 6.227027e-02 -5.264966e-02 3.541026e-02 -5.896812e-02 -1.816415e-03 -1.587196e-02 -4.870074e-02 -3.992008e-02 -7.190330e-02 -6.037405e-02 -7.501958e-02 -4.182324e-02 -4.728051e-02 -4.718406e-02 -3.902129e-02 -3.029894e-02 -2.937578e-02 -7.471520e-04
<VARIANCE> 39
 2.872251e+00 3.023438e+00 3.982666e+00 3.861633e+00 5.040581e+00 5.094589e+00 1.110931e+01 6.100879e+00 5.696198e+00 7.336973e+00 1.255933e+01 7.858510e+00 8.178990e-04 1.059910e-01 1.649453e-01 2.278662e-01 3.018070e-01 2.755409e-01 3.509434e-01 3.874964e-01 3.462113e-01 3.971878e-01 3.129416e-01 2.898507e-01 3.125286e-01 3.754082e-05 1.372059e-02 1.728467e-02 2.665088e-02 3.111307e-02 4.022636e-02 4.570341e-02 4.946109e-02 3.733792e-02 4.496918e-02 4.791761e-02 4.883968e-02 4.620728e-02 3.730629e-06
<GCONST> 6.736870e+00
<STATE> 7
<NUMMIXES> 12
<MIXTURE> 1 3.856419e-02
<MEAN> 39
 -4.318948e+00 9.503031e+00 -3.705628e+00 -6.679844e+00 -7.109918e+00 -5.778238e+00 6.661928e+00 5.936104e+00 2.050897e+01 1.772191e+01 9.038762e+00 4.685088e+00 9.727191e-01 3.091016e-01 6.758448e-02 -8.986104e-03 1.095561e-01 -1.842132e-02 -3.830762e-02 4.473940e-02 4.231543e-01 3.543226e-01 -2.194926e-01 -1.434134e-01 -8.180515e-01 2.349144e-03 -4.146054e-03 9.955455e-02 1.032520e-01 2.110805e-02 1.125960e-01 7.591049e-02 7.019207e-02 8.979260e-03 -2.388915e-02 1.041003e-01 1.416591e-01 1.805322e-02 -1.156705e-03
<VARIANCE> 39
 2.765584e+00 1.632163e+01 1.213693e+01 5.584613e+00 6.350879e+00 2.798149e+00 3.209844e+00 2.094092e+01 6.802435e+00 3.577266e+00 7.019344e+00 6.286067e+01 8.178990e-04 2.037387e-01 2.398589e-01 5.842679e-01 5.102451e-01 4.796454e-01 2.454817e-01 3.835032e-01 5.557856e-01 4.938951e-01 8.139777e-01 4.241432e-01 5.645962e-01 3.754082e-05 4.620620e-02 3.019339e-02 7.966762e-02 8.773456e-02 4.425843e-02 4.419488e-02 4.133851e-02 6.788720e-02 7.589299e-02 1.108272e-01 3.592195e-02 5.687316e-02 3.730629e-06
<GCONST> 2.139551e+01
<MIXTURE> 2 1.013629e-01
<MEAN> 39
 3.389873e+00 1.331125e+01 -1.454525e+00 1.063524e+00 -3.284088e+00 -4.062384e+00 -3.281298e+00 2.001678e+00 -1.158094e+00 3.052830e+00 -9.978839e-01 -6.307939e-01 8.230214e-01 4.699638e-01 -2.364603e-01 -9.329661e-01 3.543871e-02 4.301524e-01 -2.124919e-01 -7.823255e-02 -2.720684e-01 2.546003e-01 2.417549e-01 -6.692747e-01 -4.072872e-01 -3.786680e-04 -4.450212e-02 7.050454e-02 -2.313676e-01 -1.271591e-01 -2.156064e-02 -1.731215e-01 2.410075e-02 -1.335583e-01 4.134866e-02 -2.393085e-01 -1.809047e-01 -5.217061e-02 9.367042e-04
<VARIANCE> 39
 7.419722e+00 2.221202e+01 7.729774e+00 1.204826e+01 1.801320e+01 2.625765e+01 1.658314e+01 1.586254e+01 1.181018e+01 4.894104e+01 4.565202e+01 1.138601e+01 2.620616e-03 4.822672e-01 8.654534e-01 1.092420e+00 1.186146e+00 1.304359e+00 2.273595e+00 1.498491e+00 1.431596e+00 1.528662e+00 2.275720e+00 1.815329e+00 1.491679e+00 5.301522e-05 4.141399e-02 1.092664e-01 1.503156e-01 1.738981e-01 1.476225e-01 2.680091e-01 2.939931e-01 3.705508e-01 2.024310e-01 3.200699e-01 3.007505e-01 2.823961e-01 3.730629e-06
<GCONST> 6.115904e+01
<MIXTURE> 3 5.780748e-02
<MEAN> 39
 3.870299e-01 1.232037e+01 -4.937354e+00 -3.045887e+00 -6.812761e+00 -6.228527e+00 -3.835631e+00 -4.310999e+00 -3.174792e-01 -1.759423e+00 -3.280167e+00 -5.608984e+00 8.051852e-01 4.718052e-01 -6.800859e-02 -3.975941e-01 1.776810e-01 2.400138e-01 2.233286e-01 -2.592469e-01 -3.358352e-01 4.598859e-01 6.183574e-01 1.864599e-01 9.384757e-02 -3.010761e-03 2.225138e-01 -6.540595e-02 1.284433e-01 1.638369e-01 3.991602e-01 2.349266e-01 -7.215203e-02 1.074328e-01 1.119286e-01 -2.262801e-02 3.004121e-01 5.825999e-01 -1.356100e-03
<VARIANCE> 39
 1.483657e+01 7.995466e+01 3.350918e+01 3.019981e+01 2.655288e+01 2.408838e+01 2.484610e+01 2.623731e+01 2.631061e+01 3.999141e+01 1.539072e+01 1.267971e+01 1.683378e-02 2.763638e-01 3.830850e-01 1.223948e+00 8.416508e-01 9.884731e-01 2.207057e+00 9.243498e-01 2.237147e+00 1.749330e+00 1.995996e+00 1.077582e+00 1.673135e+00 1.119303e-04 8.639119e-02 5.893975e-02 1.849051e-01 1.772884e-01 2.777147e-01 2.430905e-01 2.364438e-01 2.930520e-01 2.797183e-01 4.118897e-01 1.683765e-01 1.768176e-01 2.699778e-05
<GCONST> 6.853929e+01
<MIXTURE> 4 6.372284e-02
<MEAN> 39
 -2.647207e+00 1.349314e+01 2.045531e-02 -4.975193e+00 -4.300120e+00 -7.829369e+00 -1.420049e+01 -7.252985e+00 2.539884e+00 -5.022285e+00 9.453220e+00 -6.797377e+00 9.420863e-01 -2.007956e-01 -1.541691e-01 -2.032833e-01 -5.099404e-01 3.400996e-01 -1.266738e-01 1.295916e-01 -3.132712e-01 -1.659845e-01 4.087223e-01 -2.331598e-01 3.527001e-01 5.391961e-03 5.776651e-02 -1.398370e-01 1.308110e-02 -1.091870e-01 4.572152e-02 9.712703e-02 3.038499e-01 4.446611e-01 -8.495015e-02 -8.033657e-02 -2.169629e-01 3.000604e-01 -2.077063e-03
<VARIANCE> 39
 7.249872e+00 1.860168e+01 1.604998e+01 1.070543e+01 1.759338e+01 1.700044e+01 2.784451e+01 9.390992e+00 1.718043e+01 1.965691e+01 9.014507e+00 1.194539e+01 1.871228e-03 7.215034e-02 3.722820e-01 2.888469e-01 4.183199e-01 5.592539e-01 4.037939e-01 7.862880e-01 1.254920e+00 3.356805e-01 1.016570e+00 7.841838e-01 8.187748e-01 5.339843e-05 9.254695e-03 5.702778e-02 7.251961e-02 8.115675e-02 9.667699e-02 8.499300e-02 1.502536e-01 1.130182e-01 7.304439e-02 1.196290e-01 7.735691e-02 1.262676e-01 5.801480e-06
<GCONST> 3.564204e+01
<MIXTURE> 5 2.277848e-01
<MEAN> 39
 -9.798801e-01 1.161157e+01 2.250527e-03 -1.126678e+00 -3.526697e+00 -5.323646e+00 -4.634171e+00 -1.986728e-01 -6.237018e-01 -1.547099e+00 1.124293e+00 -5.252759e-01 8.824771e-01 1.817326e-01 -3.631455e-02 3.812843e-02 2.421483e-01 8.863256e-02 1.733122e-02 -3.100937e-02 1.884563e-02 2.243736e-01 4.097043e-01 -1.123692e-01 -2.212547e-01 -1.114228e-02 1.571852e-01 -1.136341e-01 -4.939085e-02 -2.676597e-02 6.414498e-02 7.902672e-02 2.703237e-02 -5.013830e-02 -9.214424e-02 9.692885e-02 -6.019413e-02 -1.216575e-01 -3.638434e-03
<VARIANCE> 39
 1.228166e+01 4.181495e+01 1.200867e+01 1.460561e+01 1.365778e+01 2.155611e+01 3.148830e+01 1.668394e+01 2.427517e+01 3.685307e+01 2.286228e+01 2.053201e+01 4.561383e-03 2.297255e-01 3.080004e-01 5.457112e-01 6.877981e-01 5.062742e-01 5.995029e-01 9.882603e-01 7.342443e-01 9.514160e-01 8.476359e-01 6.304286e-01 6.185406e-01 3.754082e-05 4.783128e-02 4.312050e-02 1.007846e-01 8.509156e-02 8.885387e-02 1.111591e-01 1.852846e-01 1.097429e-01 1.466838e-01 1.434222e-01 1.514069e-01 1.522470e-01 7.362886e-06
<GCONST> 4.719773e+01
<MIXTURE> 6 8.839133e-02
<MEAN> 39
 -7.860780e-01 1.476882e+01 -5.597193e+00 -8.927079e-02 -5.546274e+00 -7.256724e+00 -2.593441e+00 -1.126788e+00 -3.250245e+00 -9.708006e-01 -3.806746e+00 2.782870e+00 8.873627e-01 -2.706850e-01 -1.517541e-01 1.334832e-01 -6.575524e-01 8.213903e-01 -4.814016e-01 1.009980e+00 2.885972e-02 9.061562e-01 -3.378695e-01 8.362054e-01 -7.697912e-01 3.223324e-04 -3.576234e-02 -3.240896e-01 2.442458e-01 -5.777354e-01 2.646168e-01 -3.572926e-01 1.393432e-02 -7.772640e-02 -3.155029e-02 -9.643910e-02 -5.208527e-02 -2.549755e-01 -2.100588e-03
<VARIANCE> 39
 1.323733e+01 2.888015e+01 9.918139e+00 1.619824e+01 7.294620e+00 1.782677e+01 2.121780e+01 1.651523e+01 2.326120e+01 2.379850e+01 2.376177e+01 4.974877e+01 4.527015e-03 1.956401e-01 3.296030e-01 4.616641e-01 3.771116e-01 6.329890e-01 7.593676e-01 7.491558e-01 7.046069e-01 7.281365e-01 8.852260e-01 8.033732e-01 7.158817e-01 3.754082e-05 3.131136e-02 9.281220e-02 8.536876e-02 1.056517e-01 1.269076e-01 2.073265e-01 2.576385e-01 2.089477e-01 2.149950e-01 1.556032e-01 1.787024e-01 1.324350e-01 6.866340e-06
<GCONST> 4.824088e+01
<MIXTURE> 7 6.344087e-02
<MEAN> 39
 -3.117036e-01 1.188885e+01 -5.448122e+00 -1.780105e+00 -4.897273e+00 -6.524312e+00 -8.417376e-01 -3.376877e+00 2.417155e-01 1.671364e+00 2.625110e+00 8.856954e+00 9.126307e-01 3.818878e-03 -7.632649e-02 4.393848e-01 -1.834120e-01 2.796817e-01 -1.425926e-01 4.990485e-02 -1.916813e-02 -4.124731e-01 1.797301e-01 1.071340e-02 -2.786810e-01 -2.900731e-03 3.866624e-02 -2.868901e-01 7.528038e-02 -2.570448e-01 7.913187e-03 -1.614238e-01 -4.191037e-01 -8.146197e-02 -2.804858e-01 -1.654462e-01 -2.223431e-01 -5.051064e-01 -4.868380e-03
<VARIANCE> 39
 1.937038e+01 2.273874e+01 2.677909e+01 1.886941e+01 2.679823e+01 2.606761e+01 1.578891e+01 1.703548e+01 1.939437e+01 5.189884e+01 7.376200e+01 1.139312e+02 4.747471e-03 4.072460e-01 4.148287e-01 5.615843e-01 6.691139e-01 8.448334e-01 1.208523e+00 6.613955e-01 1.116864e+00 1.209602e+00 1.227625e+00 1.440406e+00 1.460725e+00 3.754082e-05 7.437117e-02 5.048826e-02 1.181605e-01 1.332854e-01 2.849749e-01 1.840907e-01 1.535724e-01 2.340123e-01 1.790023e-01 4.211211e-01 3.453130e-01 4.064236e-01 1.506979e-05
<GCONST> 6.298343e+01
<MIXTURE> 8 4.571156e-02
<MEAN> 39
